{"stateSize":11,"actionSize":2,"weights":[{"name":"dense_Dense1/kernel","shape":[11,64],"data":[-1.0261797904968262,-0.09089150279760361,-0.29278913140296936,-1.1188817024230957,1.8719308376312256,0.5457552671432495,0.275747150182724,0.4467490017414093,-1.322962760925293,-0.8112338185310364,-0.662348747253418,0.4816608428955078,0.8857394456863403,-2.0983080863952637,0.8874472379684448,-1.461443543434143,1.1845778226852417,0.6980171203613281,1.2299401760101318,-0.07849566638469696,0.4803577661514282,-0.9230529069900513,-2.0086050033569336,-0.1878766566514969,1.1439719200134277,0.19354458153247833,-0.09505430608987808,1.7942817211151123,0.8040322065353394,0.9285217523574829,-0.5831013321876526,-2.52484393119812,0.6841481328010559,-1.0448641777038574,-1.5261750221252441,-0.7404683232307434,-0.4354708790779114,-0.2905119061470032,0.14621944725513458,-0.2604548931121826,2.124079704284668,-0.15380649268627167,-1.7429461479187012,-1.8040748834609985,1.1634939908981323,0.7568204402923584,0.9453766345977783,0.26911523938179016,1.0531787872314453,0.5790294408798218,-1.1449557542800903,-0.7489550113677979,-0.9604883790016174,0.5783077478408813,1.1727049350738525,-0.9402617812156677,0.021816348657011986,-0.19260576367378235,1.4837547540664673,-1.2776092290878296,-0.3090730607509613,-1.0475505590438843,-0.02564079686999321,-0.057021886110305786,-0.833858072757721,-0.39604276418685913,-0.15233416855335236,-0.7363699078559875,0.7657960057258606,0.43906599283218384,1.4060486555099487,-1.3585177659988403,-1.5267860889434814,0.23781730234622955,0.7244019508361816,1.000791311264038,1.8316164016723633,-0.46362656354904175,-2.9122023582458496,-0.46632125973701477,0.5609216690063477,-1.542738676071167,-0.4163738489151001,0.608860194683075,0.7232667803764343,-1.2831172943115234,-1.9853638410568237,-2.071625232696533,1.361917495727539,-0.7623483538627625,1.0918078422546387,0.7219016551971436,1.7373874187469482,1.641046404838562,0.2607928216457367,-0.6841592192649841,0.18289320170879364,1.1291323900222778,-0.9577401280403137,0.43079817295074463,0.16440579295158386,2.0183610916137695,0.9511154890060425,0.08407434076070786,2.124674081802368,-2.5971779823303223,0.20885029435157776,-2.5947201251983643,-3.078303813934326,0.7130685448646545,0.165164053440094,1.1806589365005493,0.35312747955322266,-0.4086501896381378,-0.5006839632987976,-0.4809638261795044,-0.4645274877548218,0.4720999598503113,1.5851492881774902,-0.6975946426391602,-0.5667867064476013,-2.0468294620513916,0.24255812168121338,-0.647423505783081,0.24594028294086456,-1.578974962234497,-0.03245111554861069,-0.8138501048088074,-0.04210846871137619,-0.6336230635643005,-0.41207391023635864,-0.21965143084526062,0.11549583077430725,0.6658520698547363,0.5869929790496826,0.04246528819203377,0.09485940635204315,-0.43830591440200806,-0.5118086338043213,0.9296538233757019,-0.790844738483429,0.41760727763175964,0.6055668592453003,-0.6225391626358032,-0.4103507995605469,0.17656587064266205,0.9430856108665466,-0.13909128308296204,1.7290973663330078,-1.407691478729248,-1.0730798244476318,0.2096606343984604,0.6237190961837769,-0.3104230463504791,0.31205248832702637,-0.0964386835694313,0.6852041482925415,-0.41886162757873535,0.15924200415611267,-1.1324766874313354,0.9237326979637146,0.5626487731933594,-1.0631492137908936,0.7431086301803589,-0.5975053906440735,-0.029766950756311417,0.09392735362052917,0.01650855876505375,0.7014533281326294,-0.7613301277160645,0.7716178894042969,-0.4511392414569855,-0.16951388120651245,0.2753031253814697,0.4436850845813751,-0.17209844291210175,1.1818777322769165,-0.4339058995246887,-1.2977300882339478,0.8570048809051514,1.515086054801941,-0.085880346596241,-0.3612038493156433,-0.8398593664169312,-1.4755210876464844,0.11310655623674393,1.352294921875,-0.0169213879853487,1.1648808717727661,-1.2009198665618896,-0.4828512668609619,-0.3149808347225189,-0.705684244632721,-0.625438928604126,-0.5971536636352539,-0.33945977687835693,0.08435941487550735,0.04037034139037132,1.7214502096176147,0.41344693303108215,-0.9543629884719849,-0.32842501997947693,-0.8135672211647034,-0.27303746342658997,-0.544068455696106,0.3741898536682129,0.12061825394630432,0.08652637898921967,0.07927343994379044,0.30091726779937744,0.7216857671737671,0.24557635188102722,1.5816682577133179,-1.3115992546081543,-0.7993665337562561,-0.37062159180641174,-0.43476584553718567,-0.12641504406929016,1.013735055923462,0.5321213603019714,0.6540521383285522,0.5651019811630249,0.6758017539978027,-1.1534247398376465,0.584403395652771,0.5178180932998657,-0.8783230781555176,0.8177931904792786,0.4600636661052704,0.5399653911590576,1.2103384733200073,0.08895938843488693,-0.22121314704418182,-0.12684880197048187,0.9593209624290466,-0.21874135732650757,-0.25896406173706055,0.025900468230247498,0.7787826061248779,0.4630468487739563,1.1605956554412842,0.22004660964012146,-1.4582695960998535,0.8498069643974304,1.3728395700454712,0.31371787190437317,-0.166746586561203,-0.9880053997039795,-0.711796760559082,-0.14486287534236908,1.3418546915054321,0.4899446964263916,0.1849575936794281,-0.4861922264099121,-0.1920776516199112,-0.39599698781967163,-0.04284253343939781,-0.5360870361328125,-1.0258737802505493,0.03303726762533188,-0.687211275100708,-0.28269463777542114,-0.5347408056259155,-0.18636734783649445,-0.016137411817908287,0.3393706977367401,0.3603644073009491,0.08769376575946808,0.11666479706764221,-0.37464743852615356,-0.31303635239601135,-0.5189050436019897,0.12278375774621964,0.6824408173561096,-0.23829440772533417,0.34648260474205017,0.17472156882286072,0.3743419647216797,0.04075692966580391,-0.01443934440612793,0.4953290522098541,0.5147374868392944,-0.6866108179092407,-0.26257607340812683,0.16142049431800842,-0.026818297803401947,-0.2214910387992859,0.4165956974029541,-0.17383643984794617,-0.10549234598875046,0.1267707347869873,-0.23529164493083954,-0.20478110015392303,-0.046687956899404526,0.41227850317955017,-0.10804976522922516,0.1494128555059433,-0.4855732321739197,-0.2211485356092453,0.5292791128158569,-0.482675701379776,-0.2710196375846863,0.45271527767181396,-0.20006169378757477,0.1655079424381256,0.34749168157577515,0.25582534074783325,0.4633738696575165,-0.39330270886421204,-0.5519537925720215,0.08361177891492844,0.3939957916736603,-0.5072066783905029,0.35720449686050415,0.27418452501296997,-0.4744845926761627,0.42014843225479126,-0.006817183457314968,-0.23470129072666168,0.7069991230964661,-0.11354971677064896,-0.20188972353935242,0.2030290812253952,0.07865718007087708,-0.30908340215682983,0.5431092381477356,0.14772255718708038,-0.6561000943183899,-0.6397247314453125,-0.0016604636330157518,0.4268825650215149,-0.31680431962013245,-0.5374442934989929,0.917019248008728,-0.17996183037757874,-0.6738930940628052,0.28098082542419434,0.3567638397216797,0.39460405707359314,-0.8423051834106445,-0.5978633761405945,-0.014122999273240566,-0.17911303043365479,-0.6301133036613464,0.42529404163360596,-0.03698091581463814,0.13914072513580322,-0.41776424646377563,0.21676144003868103,-0.5674201250076294,-0.2601352632045746,0.08826494961977005,-0.059511084109544754,0.4673900008201599,0.2294548749923706,-0.16901737451553345,0.05307618901133537,0.03996539115905762,-0.27204498648643494,-0.3054472804069519,-0.1203102096915245,-0.04230569675564766,-0.7213950753211975,-0.7069819569587708,0.5683594346046448,0.5542271137237549,0.553765594959259,0.3083008825778961,-0.5362085103988647,-0.09666437655687332,0.1640438586473465,-0.1492546945810318,-0.3354303538799286,-0.5139755606651306,-0.4754319489002228,-0.19372297823429108,-0.20087577402591705,-0.2800408601760864,-0.23743177950382233,0.18139800429344177,0.06582660228013992,0.03181903064250946,-0.43705710768699646,0.7473886609077454,0.05775957927107811,0.3536458909511566,-0.4435780644416809,-0.03923588991165161,0.3686026632785797,0.1585341989994049,0.08449634909629822,0.4817783534526825,-0.007905739359557629,0.32979902625083923,0.04261449724435806,-0.24499017000198364,0.05147679150104523,-0.21912647783756256,-0.47104910016059875,-0.15231725573539734,0.7401504516601562,-0.09984476119279861,-0.5636538863182068,-0.14867423474788666,0.4196177124977112,0.31963589787483215,0.2569318413734436,-0.7606958150863647,-0.12422961741685867,0.7072284817695618,0.4649760127067566,-1.1794250011444092,0.16384044289588928,-0.7458122968673706,-0.15560807287693024,-0.003295056289061904,0.05303030461072922,-0.6240398287773132,0.06107603386044502,0.25480911135673523,-0.13996678590774536,-0.7653257846832275,-0.5868854522705078,-0.08158759772777557,0.00009662297088652849,0.1673601269721985,0.18000036478042603,0.07524898648262024,-0.8545064330101013,0.6490986347198486,-0.2217778116464615,-0.44434210658073425,0.10934505611658096,-0.6156181693077087,0.18741685152053833,0.4250110685825348,0.4650929570198059,-0.7283230423927307,0.13936176896095276,-0.1506037414073944,0.2437504678964615,-0.30211925506591797,0.09269004315137863,-0.6795579791069031,-0.7484927773475647,-0.4351772964000702,-0.40319734811782837,-0.24527481198310852,0.45484647154808044,0.008105263113975525,0.09566307067871094,-0.41267403960227966,0.23092059791088104,-0.26467370986938477,0.5281247496604919,-0.13785089552402496,0.02320617251098156,-0.34969276189804077,0.06737950444221497,0.011301621794700623,0.3435189425945282,-0.7425961494445801,0.2393764704465866,-0.1193854957818985,0.4321500360965729,-0.5579875707626343,0.016652444377541542,0.5429741740226746,-0.623958945274353,0.22398611903190613,-0.23263861238956451,-0.4550824463367462,-0.3952636420726776,0.6761433482170105,0.5793437361717224,-0.21433548629283905,0.0009520530584268272,-0.05874279513955116,0.068183034658432,-0.19642993807792664,0.23926891386508942,-0.46135014295578003,-0.5371717810630798,-0.2801435589790344,-0.3847545385360718,-0.10720834881067276,0.017447978258132935,-0.773144543170929,0.008305324241518974,-0.013724405318498611,-0.47182801365852356,-0.08062334358692169,-0.4362553060054779,0.7578320503234863,0.010827295482158661,-0.27339544892311096,-0.12190743535757065,-0.49690866470336914,0.04480243846774101,-0.12022383511066437,0.4899698495864868,0.12829691171646118,-0.8002119064331055,-0.44992563128471375,0.5411909818649292,0.20479513704776764,0.22001610696315765,0.11543293297290802,-0.05649852752685547,0.22649788856506348,-0.14165715873241425,-0.47052982449531555,-0.3189370036125183,-0.23203924298286438,0.8412016034126282,-0.13260236382484436,-0.7251150608062744,0.2892041802406311,0.00014010163431521505,0.05120770260691643,-0.8155128955841064,-0.663787305355072,-0.3753884732723236,-0.7490315437316895,0.10703732073307037,0.06391248852014542,0.2861492335796356,0.3390198051929474,0.0008585082832723856,0.4569222033023834,0.3423798978328705,-0.6432181596755981,0.08913598209619522,-0.23583607375621796,0.05392397195100784,-0.26145243644714355,0.33938080072402954,0.1971738040447235,0.09753398597240448,0.31807687878608704,-0.09065192937850952,-0.4227607846260071,0.6676289439201355,0.1329754889011383,-0.11868096143007278,0.28837746381759644,0.22143621742725372,-0.46363991498947144,-0.14941167831420898,-0.23723609745502472,-0.577756941318512,-0.0757157951593399,-0.02005051076412201,0.34760957956314087,0.20507876574993134,0.1915808767080307,0.27819138765335083,-0.38773447275161743,-0.031719256192445755,-0.5013784766197205,-0.046440307050943375,-0.4034077227115631,-0.25998467206954956,-0.18490876257419586,-0.030016420409083366,-0.7716419100761414,0.28178101778030396,-0.3508647084236145,0.17236480116844177,-0.11879806965589523,0.28123313188552856,-0.11537955701351166,-0.17578791081905365,-0.07352976500988007,-0.18375203013420105,-0.6362687349319458,-0.02982238121330738,-0.08230195194482803,0.6299713253974915,-0.11935736238956451,-0.7625419497489929,-0.30404332280158997,-0.06484722346067429,0.07244300097227097,0.4620882570743561,-0.4089280664920807,-0.6711956858634949,-0.2411043643951416,0.03421080857515335,0.5073146224021912,0.2929726243019104,0.09560896456241608,0.21359506249427795,-0.5804135203361511,0.020903896540403366,-0.3851127326488495,-0.2986253499984741,-0.4571310579776764,0.08559395372867584,0.365421324968338,0.14996220171451569,-0.17837731540203094,0.19425134360790253,0.008618497289717197,-0.02657838724553585,0.5129844546318054,0.4751390516757965,0.10334055870771408,-0.056779369711875916,-0.17154595255851746,0.06527308374643326,-0.04296529293060303,-0.33749324083328247,0.11158528178930283,-0.7451353669166565,0.5297346711158752,0.38403815031051636,0.3216581642627716,-0.1736205667257309,-0.20304621756076813,0.20277106761932373,-0.2959052622318268,-0.039475854486227036,0.3656405210494995,0.09757055342197418,0.3408443033695221,-0.07432513684034348,-0.4615563452243805,-0.15644758939743042,0.030842093750834465,-0.06923726201057434,0.3008979856967926,-0.7793388366699219,-0.012967884540557861,-0.09823249280452728,-0.1422458440065384,-0.056198421865701675,-0.20032554864883423,-0.060640547424554825,0.1349407434463501,-0.10653063654899597,0.013824316672980785,0.046537987887859344,-0.8280873894691467,-0.07548839598894119,0.25796055793762207,0.17964231967926025,0.5525890588760376,0.16595777869224548,-0.04019785299897194,-0.06862154603004456,-0.43533191084861755,-0.48792484402656555,-0.10465086996555328,-0.256843239068985,-0.012027479708194733,-0.3404105603694916,-0.03611859679222107,-0.03356542810797691,0.11833503842353821,-0.17474931478500366,-0.15829065442085266,-0.3434652090072632,0.5251787900924683,-0.4910712242126465,-0.19189134240150452,0.14673377573490143,0.5389338135719299,0.1051090657711029,0.19855767488479614,0.14474418759346008,0.01931467279791832,-0.06957976520061493,0.4064488410949707,0.3624301552772522,0.04428480938076973,0.03477534279227257,0.5633944272994995,-0.41190770268440247,0.45666763186454773,-0.24442845582962036,0.37559083104133606,-0.3673579692840576,-0.4675593674182892,0.11581236869096756,0.6282692551612854,0.25993144512176514,0.46294257044792175,-0.03424408659338951,0.3163822889328003,0.4775996208190918,0.5252494215965271,0.45030826330184937,-0.34615573287010193,0.11912034451961517,0.3915593922138214,0.4061563313007355,-0.04410107433795929,-0.1485489308834076,0.25100356340408325,-0.61969393491745,0.45024508237838745,0.41400718688964844,-0.15677288174629211]},{"name":"dense_Dense1/bias","shape":[64],"data":[-0.34166720509529114,-0.29417988657951355,-0.18013347685337067,-0.07893827557563782,0.163096085190773,-0.1624901294708252,-0.14448681473731995,-0.1836988776922226,-0.0016981628723442554,-0.11409153789281845,-0.05515385419130325,0.06347307562828064,-0.061549559235572815,-0.1228223666548729,-0.08445588499307632,-0.20936685800552368,-0.02927481196820736,-0.17544595897197723,-0.12102977931499481,-0.1808142513036728,-0.027993911877274513,-0.15629011392593384,-0.1851048320531845,-0.19474953413009644,-0.004342024680227041,-0.03479480743408203,-0.10313556343317032,0.019442491233348846,-0.3260381817817688,-0.14380529522895813,-0.19858109951019287,-0.003196739125996828,-0.1850186437368393,-0.1582624465227127,-0.2779577672481537,-0.21331903338432312,-0.07453589141368866,-0.03920852392911911,-0.02038981206715107,-0.14537999033927917,0.02950884774327278,-0.295480877161026,-0.16009196639060974,-0.018688594922423363,-0.08912742137908936,-0.022186292335391045,0.021622298285365105,-0.15522067248821259,-0.16903452575206757,-0.29530617594718933,-0.07557598501443863,-0.20132316648960114,-0.03891906887292862,-0.1781185418367386,-0.039228007197380066,-0.26820260286331177,-0.14749036729335785,-0.21900783479213715,-0.12701839208602905,-0.16559967398643494,-0.17857752740383148,-0.253330260515213,0,-0.19370540976524353]},{"name":"dense_Dense2/kernel","shape":[64,32],"data":[0.1189289465546608,-0.13887785375118256,-0.3147294819355011,-0.3746889531612396,-0.2582210302352905,-0.0018451862270012498,-0.08848325163125992,-0.062336526811122894,0.04876991733908653,0.11980419605970383,-0.006386781111359596,-0.2559402585029602,0.15645548701286316,-0.11656871438026428,-0.14629700779914856,-0.1518871933221817,-0.06663195788860321,-0.059154167771339417,-0.22670140862464905,-0.10069350898265839,0.2129918783903122,0.04095699265599251,-0.08172624558210373,-0.36478984355926514,-0.15662840008735657,0.009492004290223122,-0.8034758567810059,0.2371808886528015,-0.019332479685544968,-0.03818090632557869,-0.46606937050819397,-0.06221320852637291,0.01299833133816719,-0.09937714785337448,-0.6206503510475159,-0.21417705714702606,-0.12062543630599976,-0.08701221644878387,0.11501673609018326,0.17538845539093018,-0.0948161631822586,-0.15470190346240997,0.08801813423633575,-0.07234501093626022,0.21559597551822662,-0.11255646497011185,-0.1007184162735939,-0.43025434017181396,-0.07674840092658997,-0.027910644188523293,-0.1781270056962967,0.07734871655702591,0.11160547286272049,0.04901620000600815,-0.17589662969112396,-0.15238896012306213,0.07469238340854645,0.11262542754411697,-0.0004883122746832669,0.15026822686195374,0.04966177046298981,-0.12526081502437592,-0.1588379442691803,0.11161581426858902,-0.027857724577188492,0.09928657114505768,-0.10856986045837402,0.019877154380083084,-0.16249419748783112,0.16030454635620117,-0.06529218703508377,0.6498883962631226,0.1310441493988037,0.2793927788734436,0.08288907259702682,0.1382022649049759,-0.07274612784385681,0.07324663549661636,-0.20308111608028412,-0.03162464499473572,-0.250532865524292,0.17783412337303162,0.1650330126285553,0.03579637408256531,-0.26036426424980164,-0.021670136600732803,-0.04205721989274025,-0.04663906991481781,0.09409262239933014,0.20369018614292145,-0.9521080851554871,-0.36320799589157104,0.18580712378025055,0.012365883216261864,0.08760173618793488,0.005831774789839983,-0.08161287754774094,0.09159436821937561,-0.3372678756713867,-0.28626006841659546,0.23010718822479248,-0.019894566386938095,-0.18759480118751526,-0.14928826689720154,-0.6064009070396423,-0.169998899102211,-0.5918431282043457,-0.2231854945421219,-0.2761978507041931,-0.21403881907463074,0.02006324753165245,0.08699578046798706,0.010747120715677738,-0.08122804015874863,0.11727355420589447,-0.11407520622015,0.07656002044677734,-0.27589064836502075,0.002995783230289817,-0.8102087378501892,0.17345066368579865,-0.02708815596997738,-0.2937799394130707,-0.21994604170322418,-0.15241947770118713,0.0063591026701033115,0.27187982201576233,-0.1429886668920517,-0.20918188989162445,-0.05410722270607948,0.6573445200920105,-0.021568957716226578,0.0036410449538379908,-0.011264179833233356,-0.07131057977676392,0.3467983901500702,0.37522947788238525,0.3876292407512665,-0.11775297671556473,-0.15441857278347015,-0.42219680547714233,-0.07612219452857971,-0.15659774839878082,0.05325515195727348,-0.2003604769706726,0.18021205067634583,0.02764037251472473,-0.15683284401893616,0.10474320501089096,-0.15770845115184784,0.08745886385440826,0.10311873257160187,-0.5890045762062073,-0.12340336292982101,0.256689190864563,-0.23428955674171448,-0.30262887477874756,0.6553547978401184,0.17701272666454315,-0.4902757406234741,0.050425443798303604,-0.20911729335784912,-0.22054272890090942,-0.42422330379486084,0.07305047661066055,0.08848895132541656,-0.14791303873062134,-0.33902212977409363,0.3847913146018982,-0.0005982914590276778,0.21767465770244598,-0.7279930710792542,-0.1700185388326645,-0.06130435690283775,0.05867929011583328,-0.10133020579814911,0.11182544380426407,0.3205486536026001,-0.17558744549751282,-0.03851938620209694,0.1558087021112442,-0.2780340909957886,-0.18236254155635834,-0.45424163341522217,-0.0785338506102562,-0.056926555931568146,0.18733453750610352,0.22662384808063507,0.2606714367866516,-0.09448134899139404,0.26617786288261414,-0.1717471033334732,-0.28550851345062256,-0.090131975710392,0.3682229816913605,0.11182962357997894,0.07519827038049698,-0.2508091628551483,-0.2829453647136688,0.03377610072493553,0.1517632007598877,0.12275086343288422,-0.4247635304927826,-0.00602903263643384,-0.08596936613321304,-0.08896393328905106,0.05750158056616783,-0.1082819476723671,-0.21353483200073242,-0.03154156729578972,-0.17295771837234497,-0.20914693176746368,-0.3715181052684784,-0.20932187139987946,0.020585885271430016,-0.057501763105392456,0.03970017656683922,-0.22721540927886963,0.17465758323669434,-0.07634793221950531,-0.5054998993873596,0.27318987250328064,0.07362857460975647,-0.07423186302185059,-0.1538367122411728,-0.040758006274700165,-0.37531667947769165,0.08805838227272034,0.17777550220489502,0.12469789385795593,-0.15836204588413239,-0.14513613283634186,-0.08238238841295242,0.30066996812820435,0.640563428401947,0.004733895417302847,-0.21650949120521545,0.06829039007425308,0.16972114145755768,-0.26702871918678284,-0.14824093878269196,-0.017425760626792908,0.03245655074715614,-0.01685229502618313,-0.3166590631008148,-0.13345344364643097,0.05878589302301407,-0.36884379386901855,-0.03483177721500397,0.24975231289863586,-0.1419091820716858,-0.06388810276985168,0.19114087522029877,-0.12117365002632141,0.04188375547528267,-0.17229332029819489,0.07431693375110626,0.07766902446746826,-0.2578708529472351,-0.272810697555542,-0.12481746077537537,0.011207020841538906,0.37335917353630066,-0.04307449609041214,-0.39838287234306335,0.15948140621185303,-0.07719863206148148,-0.8336759209632874,-0.280672162771225,-0.015598946250975132,-0.033874429762363434,0.07115718722343445,-0.41548675298690796,0.2156199812889099,-0.04288407042622566,0.12061087787151337,-0.20060409605503082,-0.07222668081521988,-0.08310636878013611,-0.4205281436443329,0.032107383012771606,0.1450457125902176,0.049063827842473984,-0.007719413843005896,-0.22752083837985992,-0.17312510311603546,-0.10880304127931595,-0.280612975358963,-0.35909390449523926,-0.25471916794776917,0.32240989804267883,-0.13263040781021118,0.12238387018442154,0.1307016760110855,-0.1386721283197403,0.24993540346622467,-0.021932683885097504,0.033477533608675,0.04784481227397919,-0.023167982697486877,-0.1695353239774704,-0.21107995510101318,-0.10555849224328995,-0.18660598993301392,0.08131033182144165,0.23230788111686707,-0.2516847848892212,0.0554051399230957,-0.3417935073375702,-0.19060535728931427,-0.32790493965148926,0.045845940709114075,0.10526932775974274,-0.0026883077807724476,-0.23737876117229462,0.13010597229003906,0.10219796001911163,0.15413063764572144,-0.019184328615665436,-0.22092285752296448,-0.2695976197719574,0.12244662642478943,0.3475099503993988,0.198019340634346,0.05341184884309769,-0.045883335173130035,0.16743877530097961,0.28894853591918945,0.08909010142087936,0.15924067795276642,-0.032226454466581345,-0.18549519777297974,-0.2403925657272339,0.10178706794977188,-0.20400795340538025,0.13626055419445038,-0.16093875467777252,-0.39361143112182617,-0.19743582606315613,0.03449356555938721,0.16842739284038544,0.17985887825489044,-0.10312001407146454,-0.17104774713516235,-0.030398573726415634,-0.06468230485916138,-0.13252009451389313,0.23358994722366333,-0.32716503739356995,0.10795016586780548,0.14818871021270752,0.14354482293128967,-0.20917879045009613,0.015136899426579475,0.1626579761505127,-0.1169910877943039,-0.020055776461958885,-0.3304109275341034,-0.06079845130443573,0.22034330666065216,0.6118316650390625,-0.0753878578543663,-0.24089142680168152,0.3902815282344818,-0.18705013394355774,0.023878388106822968,0.06084879860281944,0.24297264218330383,0.2818755507469177,0.06048161908984184,0.1504359096288681,-0.23000095784664154,-0.09241744875907898,-0.03704274445772171,0.07465096563100815,-0.6296457648277283,-0.14806808531284332,0.5953091979026794,-0.5518615245819092,-0.03647923469543457,-0.08457516878843307,0.22838521003723145,0.1570415198802948,-0.23703408241271973,-0.19885140657424927,-0.15136471390724182,0.11347007006406784,0.19153377413749695,-0.01941370777785778,-0.3085227310657501,0.19629932940006256,0.08046311140060425,0.03627543896436691,0.08646784722805023,-0.010864084586501122,-0.41982215642929077,-0.009183337911963463,-0.10002975910902023,-0.03152264654636383,-0.1891084909439087,-0.20023085176944733,-0.18388889729976654,0.08207114785909653,0.09433884918689728,-0.16006149351596832,0.18080013990402222,0.11356645077466965,0.16304196417331696,0.08609083294868469,0.33502182364463806,0.05868807062506676,-0.12026319652795792,-0.30159950256347656,0.05014375224709511,-0.11609206348657608,0.11460503935813904,-0.11069326102733612,-0.1475697010755539,0.4451623558998108,0.22942902147769928,-0.2854650020599365,-0.08503542840480804,-0.08659395575523376,0.2828252613544464,-0.5842359662055969,-0.13644994795322418,-0.257224440574646,0.314975380897522,0.23521938920021057,0.1314913034439087,0.011051506735384464,-0.20139850676059723,0.18299303948879242,-0.05138355493545532,0.0083703538402915,0.06479164958000183,-0.20424865186214447,-0.023686392232775688,-0.2752673923969269,-0.736570417881012,0.052864912897348404,-0.0655759945511818,-0.12409687042236328,-0.06773871183395386,0.1253712773323059,0.30807018280029297,0.14240677654743195,0.2178860902786255,-0.07575646787881851,0.08501876890659332,-0.109042689204216,-0.3224400281906128,0.1496194452047348,0.11462390422821045,0.19441448152065277,0.02159946598112583,0.2700354754924774,0.26767128705978394,-0.34796157479286194,0.2849164605140686,-0.040872808545827866,-0.2546461522579193,0.02661207690834999,0.1935327798128128,0.00921326968818903,0.3208141326904297,-0.2335195690393448,-0.28046539425849915,-0.4166424870491028,-0.05825425684452057,-0.059816960245370865,0.11305423825979233,-0.11908841133117676,0.40732482075691223,-0.2581653296947479,-0.26166242361068726,-0.16983632743358612,0.11587241291999817,-0.16914059221744537,-0.1365976333618164,0.04343033581972122,-0.17527681589126587,0.19914717972278595,-0.05542761832475662,-0.29066330194473267,-0.17906290292739868,0.009892333298921585,-0.18190404772758484,-0.21744687855243683,-0.013171276077628136,-0.11474551260471344,-0.007232096046209335,-0.07427451759576797,-0.17401191592216492,-0.05705934017896652,0.21386191248893738,0.14129863679409027,0.2327270358800888,-0.12449558824300766,-0.2377799153327942,-0.16129688918590546,0.07275324314832687,0.21235796809196472,-0.02744431048631668,-0.06444878876209259,0.195857971906662,0.09006727486848831,-0.04456312209367752,0.07686742395162582,-0.21810762584209442,0.07002127915620804,-0.0849381610751152,-0.2629522979259491,0.11938969045877457,-0.0005347614642232656,-0.044246066361665726,0.0818781703710556,-0.023441661149263382,-0.14703525602817535,0.44983920454978943,-0.034678224474191666,0.041130006313323975,0.06530410051345825,-0.1533476859331131,0.011853850446641445,-0.20904509723186493,0.22545067965984344,-0.23096506297588348,-0.11584064364433289,-0.1343846619129181,0.16580457985401154,-0.14380452036857605,-0.09453960508108139,-0.2129998505115509,0.13383431732654572,-0.15358804166316986,-0.1992383450269699,-0.02669483609497547,-0.07446398586034775,-0.16090625524520874,-0.2608136832714081,0.04075080156326294,0.052453167736530304,-0.07311911880970001,-0.020878566429018974,-0.16388097405433655,0.01709635928273201,-0.08764386922121048,-0.035971611738204956,-0.08234114199876785,0.2907596528530121,0.07175246626138687,-0.3903033435344696,-0.1858654022216797,-0.03647439181804657,-0.40924718976020813,0.02168821357190609,0.2032817155122757,-0.12776218354701996,-0.2729843854904175,0.22955259680747986,0.04935816675424576,0.004318042658269405,0.04031297191977501,-0.21195682883262634,-0.04518592357635498,-0.021366961300373077,-0.15830858051776886,0.11994366347789764,-0.10057272762060165,-0.06474266201257706,-0.06489212065935135,0.31001895666122437,-0.2419963926076889,-0.04731626436114311,0.0780813917517662,-0.26362189650535583,-0.05869282782077789,0.23759229481220245,-0.09882102161645889,-0.08238604664802551,0.13031524419784546,-0.028564661741256714,0.18411500751972198,-0.03683297708630562,0.021691417321562767,-0.18274778127670288,0.2982077896595001,-0.19524869322776794,0.0039580212906003,-0.11324504762887955,0.08214428275823593,0.08138270676136017,-0.40190356969833374,-0.15670953691005707,0.1209331825375557,-0.4027785062789917,0.06562121957540512,0.0044113947078585625,0.35070595145225525,-0.14483259618282318,-0.1688850373029709,0.046696737408638,0.015276843681931496,0.05414097011089325,0.40808916091918945,0.19381532073020935,-0.00360934273339808,-0.20556096732616425,-0.1924780309200287,0.3102811574935913,0.3676799535751343,-0.20196183025836945,0.02387355826795101,0.07230853289365768,0.2008526474237442,0.1681610345840454,-0.13094261288642883,-0.0014527292223647237,-0.5287011861801147,-0.0857599675655365,-0.19125504791736603,-0.03977070748806,-0.07868446409702301,-0.06446222960948944,0.06071954593062401,0.0431603342294693,-0.15615016222000122,-0.3790300786495209,0.0629335418343544,-0.009540279395878315,-0.3747888207435608,0.23858949542045593,-0.13711009919643402,0.12861786782741547,0.07741619646549225,-0.11603487282991409,-0.3248359262943268,-0.13847920298576355,-0.14470751583576202,0.04079093039035797,0.18035109341144562,0.530284583568573,0.2552994191646576,0.04303302243351936,-0.25302213430404663,-0.0639476552605629,0.3392431139945984,0.05404368415474892,-0.09801865369081497,-0.08556599915027618,-0.05615665018558502,0.010763171128928661,0.0382104218006134,-0.0720229223370552,0.0179042536765337,0.5880095362663269,-0.18115539848804474,-0.06904114782810211,0.2161920666694641,0.27947017550468445,0.28069475293159485,0.050989843904972076,-0.37506404519081116,-0.02003195695579052,-0.3851705491542816,0.22823858261108398,-0.17481781542301178,-0.15456919372081757,0.4533032476902008,0.3066173195838928,-0.22743386030197144,-0.044044774025678635,0.08649628609418869,-0.7075210213661194,-0.46852952241897583,-0.3733724355697632,0.18971385061740875,0.0690656304359436,0.09252510219812393,-0.15334223210811615,-0.010692603886127472,-0.3178679943084717,-0.18193574249744415,-0.03882961347699165,-0.006738092750310898,0.009266972541809082,-0.1903868168592453,-0.2008914202451706,-0.07764756679534912,-0.03231552243232727,0.11492445319890976,0.020031897351145744,-0.08202823251485825,0.2087288647890091,-0.2776927351951599,-0.09153889864683151,0.1417609453201294,-0.9798401594161987,0.014301962219178677,0.09893709421157837,-0.4719662070274353,-0.06512506306171417,0.039135243743658066,0.1564556062221527,0.11247174441814423,-0.1606353521347046,-0.09919906407594681,-0.13061285018920898,0.2350693643093109,0.08429907262325287,0.13687162101268768,-0.4405491352081299,-0.23641437292099,-0.11222714930772781,-0.5106490850448608,0.08360743522644043,-0.07626278698444366,-0.2332204282283783,0.07318460196256638,-0.21314312517642975,-0.07523734122514725,-0.12542034685611725,-0.08497005701065063,-0.19738224148750305,-0.2039949595928192,0.02392290160059929,-0.13678528368473053,0.252273291349411,0.25543248653411865,-0.2820521891117096,-0.15773698687553406,0.015342671424150467,0.015787646174430847,-0.23060742020606995,-0.10727077722549438,0.1960582435131073,-0.15182222425937653,-0.4040657877922058,-0.0774223655462265,0.2525511682033539,-0.23315805196762085,0.1905606985092163,0.05184551700949669,-0.043807923793792725,-0.07835011929273605,-0.26881781220436096,0.12001024186611176,-0.04640872776508331,0.12134384363889694,-0.2810002267360687,0.08915779739618301,0.034048136323690414,-0.35836413502693176,0.010572504252195358,-0.09116412699222565,-0.0021808999590575695,-0.22074666619300842,-0.043544452637434006,-0.09215694665908813,-0.1746014803647995,0.1559954136610031,-0.14135801792144775,-0.13287977874279022,-0.06752576678991318,0.014804184436798096,-0.2127571552991867,-0.2900519371032715,-0.07535509765148163,-0.1190989688038826,-0.23876269161701202,0.029050512239336967,0.032414086163043976,0.05211322009563446,-0.11137256026268005,0.12696415185928345,0.0680905282497406,0.274562805891037,0.05186298489570618,0.14661505818367004,-0.12880180776119232,-0.215425506234169,-0.3747261166572571,0.08395852148532867,0.028545217588543892,0.014006707817316055,-0.3327386975288391,-0.2606402635574341,-0.1299925148487091,-0.07289417088031769,-0.27550145983695984,0.3356670141220093,0.04979401081800461,-0.3141058385372162,0.14450132846832275,0.1700028032064438,-0.1036176010966301,-0.00612638471648097,-0.13062110543251038,-0.04299186170101166,0.24672465026378632,-0.21894784271717072,-0.12094251066446304,0.06143911927938461,0.08599623292684555,-0.1737077236175537,-0.07406944781541824,0.37103310227394104,0.0873894989490509,0.24760869145393372,-0.38315463066101074,0.06920439004898071,-0.07389090210199356,0.0013316178228706121,0.04255436360836029,-0.18282318115234375,0.019809572026133537,0.033770009875297546,-0.051195818930864334,0.024918029084801674,-0.03297963738441467,0.13376948237419128,-0.24115628004074097,-0.3062248229980469,0.09450117498636246,0.11724036186933517,0.005452021956443787,-0.022501647472381592,0.14295175671577454,-0.28149113059043884,-0.14633144438266754,-0.0034052818082273006,0.0033187801018357277,-0.10330287367105484,-0.13790643215179443,-0.009960404597222805,-0.25405657291412354,-0.10384798794984818,-0.24616441130638123,0.2553875148296356,0.050523098558187485,0.07865376770496368,0.15524804592132568,-0.16767212748527527,-0.1100555807352066,0.024733467027544975,-0.389260858297348,0.15436339378356934,0.00931750237941742,-0.15249772369861603,0.12403169274330139,-0.3688320815563202,-0.25300362706184387,0.08419842272996902,0.06907111406326294,0.07169890403747559,-0.3207061290740967,-0.14796173572540283,0.11621560901403427,-0.11561039090156555,-0.3133193552494049,0.023056862875819206,0.14457790553569794,0.16669687628746033,-0.09468729048967361,0.09184997528791428,0.545463502407074,0.4892958700656891,0.14983686804771423,-0.12515611946582794,-0.15202724933624268,0.262431263923645,-0.2716844975948334,-0.5637615323066711,-0.13365936279296875,0.5975199341773987,0.3852858543395996,0.12438400089740753,-0.05005551874637604,0.06188342720270157,0.4055868685245514,-0.11727932840585709,-0.22125162184238434,0.18777284026145935,-0.12613114714622498,-0.09611871838569641,0.12443452328443527,-0.6977872252464294,-0.013786336407065392,-0.12510405480861664,0.1078834980726242,0.10847296565771103,-0.030632197856903076,0.2093738168478012,0.38368991017341614,-0.03854530677199364,-0.11616923660039902,0.05180015042424202,0.6484306454658508,-0.015556374564766884,-0.15611429512500763,-0.10588744282722473,0.19544640183448792,-0.1748792678117752,0.15376845002174377,0.08520703762769699,-0.062363166362047195,-0.6702842116355896,-0.039208121597766876,-0.18974371254444122,0.05024406313896179,-0.06415075808763504,0.2591450810432434,-0.06436433643102646,-0.33640056848526,0.03918258100748062,0.027800215408205986,-0.13499093055725098,0.09541796147823334,-0.4403114318847656,-0.1256435513496399,0.11106012761592865,0.01736489310860634,-0.26707378029823303,0.052427180111408234,-0.07209821790456772,-0.03699119761586189,-0.06762392073869705,-0.29170820116996765,-0.13987360894680023,0.01340446900576353,0.20491783320903778,-0.05944500118494034,-0.07948604971170425,0.15447112917900085,0.03010452538728714,-0.27460944652557373,0.011835952289402485,-0.34720492362976074,-0.3341274559497833,0.24031344056129456,-0.012638485990464687,-0.13355687260627747,0.07408347725868225,0.537321150302887,-0.051664482802152634,-0.09675925225019455,-0.03741838037967682,-0.43127524852752686,0.08170495182275772,-0.07447431981563568,-0.33276617527008057,0.010329026728868484,-0.31434088945388794,-0.1766217201948166,-0.04949536919593811,0.11654145270586014,-0.4610888659954071,0.2637046277523041,-0.07920394092798233,0.0382382869720459,0.023900723084807396,-0.17183761298656464,-0.014456457458436489,0.054061755537986755,-0.19083823263645172,-0.0774339884519577,0.25721311569213867,0.31508105993270874,0.3063740134239197,-0.20360292494297028,-0.03483211249113083,-0.02217542566359043,-0.12527190148830414,-0.26291507482528687,-0.18163469433784485,0.04289136081933975,0.0547911673784256,-0.077320396900177,-0.2942962944507599,-0.37322598695755005,-0.09178005903959274,0.16582831740379333,0.41224679350852966,-0.04596420004963875,0.09021786600351334,0.037123147398233414,0.005714305676519871,0.1341516524553299,0.022872911766171455,0.0912921130657196,0.16355380415916443,-0.09005177766084671,0.16321812570095062,-0.45795348286628723,-0.9431650638580322,-0.09214775264263153,-0.046523723751306534,0.05206858366727829,0.09805627912282944,-0.15919433534145355,-0.06994715332984924,-0.6295555830001831,-0.21108615398406982,-0.10842527449131012,0.13461872935295105,-0.11601485311985016,0.01696225255727768,-0.4888801574707031,-0.053443748503923416,-0.19656352698802948,-0.036306750029325485,-0.14100618660449982,0.11666609346866608,-0.21934862434864044,-0.027972059324383736,-0.10771442204713821,-0.0015692156739532948,-0.6415204405784607,-0.18395328521728516,-0.17735929787158966,-0.3055374324321747,-0.6517655849456787,0.01099778525531292,-0.08501598238945007,-0.39672571420669556,0.1119757816195488,0.04859793558716774,-0.1683909147977829,0.00509855430573225,0.02210908569395542,0.05236339941620827,0.13948798179626465,-0.05056566372513771,0.041476231068372726,-0.039869897067546844,0.09402302652597427,-0.25139254331588745,0.03862239792943001,-0.19283504784107208,0.1650412380695343,0.11495625972747803,0.09344075620174408,0.05288541316986084,-0.11577662825584412,0.052543677389621735,0.14478859305381775,0.15594543516635895,-0.09698448330163956,-0.03402924910187721,0.1680743247270584,-0.040467243641614914,-0.5437885522842407,-0.004809408914297819,-0.0003509489179123193,-0.37620195746421814,0.2841797173023224,0.1487630009651184,0.22133782505989075,0.11577330529689789,-0.10543479770421982,-0.12639251351356506,-0.30084994435310364,-0.11333110928535461,0.32152074575424194,-0.24057546257972717,-0.2811368703842163,-0.37523436546325684,0.06483851373195648,-0.24213360249996185,0.051553525030612946,0.12015445530414581,-0.5490115880966187,-0.0007935069152154028,-0.31396180391311646,-0.050715625286102295,0.13494068384170532,-0.06133164092898369,0.12027736753225327,-0.16891348361968994,-0.1404930055141449,-0.04382505267858505,0.08848458528518677,-0.02539978362619877,0.08864013105630875,0.18228492140769958,-0.28220614790916443,0.17168426513671875,-0.1333417147397995,-0.0076562934555113316,-0.23767943680286407,-0.04170343279838562,0.07121627032756805,0.3056468665599823,-0.19170638918876648,-0.12210393697023392,-0.0343087762594223,0.24535775184631348,-0.3830293118953705,-0.4035116136074066,0.11426244676113129,0.00942107941955328,-0.15809884667396545,0.020063886418938637,-0.06417300552129745,0.14827510714530945,0.26121509075164795,0.15529711544513702,-0.2615737318992615,-0.10079219192266464,-0.15444731712341309,-0.19300256669521332,-0.06439456343650818,0.07937293499708176,-0.646333634853363,0.051302067935466766,0.004757977090775967,-0.37564337253570557,-0.444240540266037,-0.15908628702163696,0.006949212402105331,-0.1560307890176773,0.28782379627227783,0.06681253015995026,-0.06961678713560104,0.1592414379119873,0.07393666356801987,-0.027448436245322227,-0.20301556587219238,-0.07875590771436691,-0.1500864028930664,-0.4221698045730591,0.0194095391780138,-0.04056544974446297,0.026354528963565826,-0.3292559087276459,0.2423487901687622,0.2671915888786316,-0.09721389412879944,-0.06501694768667221,-0.09844133257865906,0.15028761327266693,0.2866448760032654,-0.1859443038702011,0.10331204533576965,0.025283440947532654,0.15543173253536224,-0.16289068758487701,0.09603332728147507,0.04508918896317482,0.1375412493944168,0.11342960596084595,0.1610437035560608,-0.14673177897930145,0.13588710129261017,-0.07685286551713943,0.20580506324768066,0.24893859028816223,-0.23363716900348663,0.27178844809532166,0.0835384726524353,0.011406267993152142,0.15583914518356323,0.007954190485179424,-0.20547747611999512,0.14753620326519012,0.0900055393576622,-0.016808124259114265,0.192118838429451,0.10654670745134354,0.1523706167936325,-0.037407808005809784,0.10246068984270096,0.004267502576112747,-0.18598602712154388,0.11821895837783813,0.15528170764446259,0.12007962912321091,0.22981123626232147,-0.06418920308351517,0.15805979073047638,-0.06467937678098679,-0.01767135038971901,0.05628422647714615,-0.24774329364299774,0.09943404793739319,0.20293359458446503,0.12316540628671646,0.06827300041913986,-0.12187374383211136,0.010489103384315968,0.2962374985218048,-0.12803612649440765,-0.5339692234992981,-0.6771020293235779,-0.349529892206192,-0.1399819701910019,0.15542711317539215,-0.03859766945242882,0.018214626237750053,-0.145429790019989,-0.3011576235294342,-0.32327336072921753,-0.10764165967702866,-0.208925262093544,-0.15512976050376892,-0.2692587971687317,-0.14544975757598877,0.11772160232067108,-0.22395412623882294,-0.5012246966362,0.006381845101714134,-0.18757563829421997,0.15316808223724365,0.03896496817469597,-0.0576644241809845,-0.010354408994317055,-0.22807097434997559,0.08422484993934631,-0.18523909151554108,-0.17000548541545868,-0.04056375473737717,-0.07137010246515274,0.1385556012392044,0.2933471202850342,0.27257993817329407,-0.018601901829242706,0.2142929583787918,0.014986076392233372,-0.04087216034531593,0.11032760143280029,0.12272390723228455,-0.5477391481399536,-0.13605313003063202,0.4198863208293915,-0.0002820391673594713,-0.353243887424469,0.1276644915342331,-0.29325371980667114,0.3465498685836792,-0.054669030010700226,0.44844183325767517,-0.008445360697805882,-0.061487916857004166,0.1593489944934845,-0.3723126947879791,-0.37918129563331604,0.2601928412914276,-0.2570393681526184,0.257236123085022,-0.1813780665397644,-0.0010537710040807724,0.11017046123743057,0.031635746359825134,-0.05154905468225479,-0.05616077035665512,0.3394615650177002,0.3598019480705261,0.11857158690690994,-0.3517562448978424,-0.1788724809885025,-0.0701104998588562,-0.20544394850730896,0.17863966524600983,-0.2691282331943512,0.03810964897274971,-0.2568719983100891,-0.011613431386649609,0.28551149368286133,0.07692805677652359,-0.019910292699933052,-0.26068001985549927,-0.17232593894004822,0.3346075415611267,0.06993541866540909,-0.2347187101840973,-0.22813065350055695,-0.043637339025735855,-0.0950089693069458,-0.01301511749625206,-0.003972132224589586,-0.057697396725416183,0.10516398400068283,0.4450449049472809,-0.2448359578847885,-0.13406962156295776,-0.28919610381126404,0.09121807664632797,0.09742971509695053,0.3564976155757904,0.19099482893943787,-0.031167784705758095,-0.2305557280778885,0.07869700342416763,0.0870940312743187,-0.1404981017112732,0.08822011947631836,-0.3363705277442932,-0.2021295726299286,0.2671709656715393,-0.03567894175648689,-0.1884327381849289,-0.12428618222475052,0.30784472823143005,0.16965678334236145,-0.18427123129367828,0.27127858996391296,0.22655010223388672,-0.3080796003341675,0.06404203921556473,0.2412748485803604,-0.2609420120716095,0.0934758111834526,-0.25199344754219055,-0.029712671414017677,0.037527214735746384,-0.023039350286126137,-0.1437412053346634,0.00738818384706974,-0.028218204155564308,-0.20174916088581085,0.1246630996465683,0.28512638807296753,0.17416532337665558,-0.09295566380023956,-0.16182543337345123,0.011967265047132969,0.24814963340759277,-0.03836003690958023,-0.012130850926041603,-0.07980576157569885,-0.16033118963241577,-0.010911364108324051,-0.17023703455924988,-0.0888216570019722,-0.17229093611240387,-0.011874336749315262,0.4826042056083679,-0.2570763826370239,-0.14852279424667358,0.020987486466765404,-0.1662851870059967,-0.19451867043972015,-0.11121318489313126,-0.05327531322836876,-0.2823083698749542,0.2014521062374115,-0.03349943459033966,-0.21999692916870117,0.039470985531806946,0.17095348238945007,0.06498638540506363,-0.12498710304498672,0.037590496242046356,-0.5126433968544006,-0.47449564933776855,-0.009526814334094524,0.041786905378103256,0.10265526920557022,0.004891166929155588,0.2997014820575714,-0.09183049947023392,-0.07464021444320679,0.07948292046785355,0.19217050075531006,0.0430026575922966,0.1398841142654419,-0.26343855261802673,-0.278937965631485,-0.32175931334495544,-0.6886320114135742,0.03346308320760727,-0.08948417752981186,-0.11171820014715195,0.12299495190382004,-0.1521206498146057,0.020670168101787567,0.003878355026245117,-0.29186880588531494,-0.04528160020709038,-0.19002626836299896,-0.1372225433588028,0.011168126948177814,-0.19894728064537048,-0.6916637420654297,0.060482367873191833,-0.6775045990943909,-0.6753833889961243,-0.024833571165800095,-0.17716562747955322,-0.2852374315261841,0.14542479813098907,-0.13695989549160004,0.3706463873386383,-0.045097410678863525,-0.1912420094013214,0.18424460291862488,-0.04037909954786301,-0.07835395634174347,0.09781330823898315,-0.009838709607720375,0.16705761849880219,-0.5403227806091309,-0.2000042200088501,0.11269327998161316,0.03348460793495178,-0.006656297016888857,-0.22788874804973602,-0.022293012589216232,0.26569560170173645,-0.4811813235282898,-0.3981577455997467,-0.14611665904521942,0.2551157772541046,0.05440378934144974,0.13600090146064758,-0.0026942980475723743,0.1588546335697174,-0.486446350812912,0.6098275184631348,-0.02799181267619133,0.06171918287873268,-0.2070063203573227,-0.09668882936239243,-0.7255845069885254,-0.026873111724853516,-0.1662221997976303,-0.11685764044523239,-0.04965897649526596,-0.02379753068089485,0.07491549104452133,-0.36206698417663574,-0.34714850783348083,0.2295539826154709,-0.2888544201850891,0.22765648365020752,-0.14675484597682953,-0.0403527207672596,-0.025096353143453598,-0.08797262609004974,-0.18239183723926544,-0.24373342096805573,-0.25423792004585266,0.06599704176187515,-0.13920858502388,-0.096150241792202,0.12950125336647034,0.35415929555892944,-0.0785277932882309,0.05716007947921753,-0.4178753197193146,-0.14265793561935425,-0.072663314640522,-0.09656942635774612,-0.0137023301795125,-0.03155231848359108,0.02108011581003666,-0.2722422480583191,-0.43369078636169434,0.25332194566726685,-0.04428890347480774,-0.2171323150396347,-0.27224108576774597,-0.553351104259491,-0.2759805917739868,-0.14518475532531738,0.21595633029937744,-0.1200219988822937,-0.13021880388259888,-0.14425013959407806,-0.2248811572790146,-0.0006882596062496305,-0.4424123167991638,-0.06950990855693817,0.007423711474984884,0.1456403285264969,-0.10043849050998688,-0.05239115655422211,0.020667459815740585,0.4311319887638092,-0.013006029650568962,-0.008540290407836437,0.06944944709539413,0.1275753676891327,-0.06583767384290695,-0.22728633880615234,-0.1796681135892868,-0.2513372600078583,0.19328157603740692,0.12993429601192474,-0.32183489203453064,-0.14109091460704803,0.20480063557624817,-0.1608041673898697,-0.012606281787157059,-0.21316072344779968,-0.08714360743761063,-0.06256218999624252,-0.022655688226222992,-0.1431816816329956,-0.2987149953842163,0.09718895703554153,-0.26168397068977356,-0.1751302182674408,-0.25485759973526,-0.22704428434371948,0.22620347142219543,-0.023492174223065376,-0.1443837583065033,0.17661632597446442,-0.14551876485347748,-0.16665637493133545,-0.05400172248482704,-0.09926138818264008,0.34937089681625366,-0.1251857578754425,-0.17592677474021912,0.04276458919048309,-0.09258173406124115,-0.062059540301561356,-0.20500501990318298,-0.38169747591018677,-0.12964051961898804,-0.29338163137435913,0.21926866471767426,0.18292665481567383,-0.006902933586388826,-0.4722374975681305,0.09682995080947876,0.23140285909175873,-0.014542637392878532,-0.22687694430351257,-0.040792375802993774,0.17029322683811188,-0.06811276078224182,-0.14118081331253052,0.06190058961510658,-0.23184989392757416,0.40000391006469727,-0.08593928813934326,0.17698051035404205,-0.28993597626686096,0.08082890510559082,0.08968591690063477,0.09782266616821289,-0.026638023555278778,0.13811802864074707,0.12415998429059982,-0.3002068102359772,-0.18418681621551514,0.06523071229457855,-0.32672736048698425,0.45331165194511414,0.12264566868543625,-0.22097937762737274,0.1884211003780365,0.04505336657166481,-0.07915417104959488,0.047822631895542145,0.19510304927825928,-0.17242392897605896,-0.2609235644340515,0.3802550733089447,-0.13700568675994873,0.10457754135131836,-0.09801990538835526,0.33875909447669983,-0.21920089423656464,-0.05369696393609047,-0.03897058218717575,-0.08944825083017349,0.02075464092195034,-0.3720380663871765,-0.04382919520139694,-0.21106861531734467,0.11385612189769745,-0.2549614906311035,-0.36406925320625305,-0.13842834532260895,0.16482925415039062,-0.19950376451015472,-0.15192142128944397,-0.3358733057975769,-0.315824419260025,0.07394392788410187,-0.15634480118751526,-0.11832709610462189,0.14649002254009247,-0.05688599497079849,0.003031205851584673,0.08760152012109756,-0.055615585297346115,0.1513688862323761,0.03413170203566551,0.05926244705915451,0.059662412852048874,-0.25294071435928345,-0.29711368680000305,-0.16251930594444275,-0.03225807473063469,-0.24718250334262848,0.15622109174728394,-0.0725671723484993,-0.3751579821109772,0.11838557571172714,-0.16880308091640472,0.007086637895554304,0.10014607757329941,-0.013876041397452354,-0.2677525579929352,-0.7045068740844727,-0.1622885912656784,-0.10528156906366348,0.04677484184503555,0.15557356178760529,0.1359647661447525,-0.09895304590463638,0.07945438474416733,0.3119899034500122,-0.1607586145401001,-0.035210251808166504,-0.26330479979515076,-0.01639363542199135,-0.029353711754083633,-0.11729125678539276,0.1484443098306656,-0.8346823453903198,-0.26508525013923645,-0.503905713558197,-0.2070423662662506,-0.3575024902820587,-0.23971045017242432,0.09478165209293365,0.047404829412698746,0.05552729219198227,-0.07012571394443512,-0.04775795713067055,-0.21371765434741974,-0.32334840297698975,-0.03947506472468376,0.14781403541564941,0.10439644008874893,-0.07186387479305267,-1.2008650302886963,0.25550106167793274,0.16027629375457764,-0.18767069280147552,0.30370113253593445,0.11518776416778564,-0.21651485562324524,-0.26398468017578125,-0.1477983593940735,-0.1265842318534851,-0.28774404525756836,-0.2446565181016922,-0.23377598822116852,-0.051921941339969635,0.36901405453681946,-0.11777501553297043,-0.013791754841804504,-0.03280084580183029,-0.35443541407585144,-0.16561970114707947,0.10478602349758148,-0.01521163247525692,0.025126978754997253,-0.019745279103517532,-0.04113991558551788,-0.020870033651590347,0.04359054192900658,0.000702541321516037,0.22547833621501923,0.10744491219520569,-0.04562137648463249,-0.059525683522224426,-0.339484304189682,0.23862230777740479,-0.19671733677387238,-0.047408584505319595,-0.054541222751140594,-0.07803680002689362,-0.039040084928274155,0.019980845972895622,-0.12891323864459991,-0.19004112482070923,0.09913357347249985,0.07347327470779419,-0.4734703302383423,-0.4196067750453949,0.3700057566165924,0.15696591138839722,0.07899186760187149,-0.1421787291765213,0.03892715647816658,-0.14955854415893555,-0.21534579992294312,-0.10237135738134384,0.09453867375850677,-0.02451099269092083,-0.07073809206485748,0.026159662753343582,0.14574529230594635,-0.3106529116630554,0.163807675242424,-0.04778920114040375,-0.21051478385925293,-0.14952883124351501,0.0962354987859726,-0.11693574488162994,0.12638446688652039,-0.060274526476860046,-0.13561181724071503,0.13934645056724548,0.2002730667591095,0.21386241912841797,-0.11609573662281036,-0.13334378600120544,-0.1356765329837799,0.018084034323692322,-0.22229483723640442,0.002913810545578599,-0.05230998620390892,-0.21959631145000458,-0.22774261236190796,0.043149031698703766,-0.14892244338989258,-0.054302096366882324,0.07713030278682709,-0.12033375352621078,0.18623380362987518,-0.7329540848731995,-0.12355868518352509,-0.10421274602413177,-0.3378249704837799,-0.08721475303173065,-0.012702853418886662,0.8507934212684631,-0.0742928609251976,0.4137769937515259,-0.6791187524795532,0.2554750442504883,0.12566697597503662,-0.1385461837053299,-0.06998006254434586,-0.16716653108596802,-0.3499765992164612,0.07320377975702286,-0.10040941089391708,0.05279501527547836,0.11050930619239807,0.10189671069383621,-0.015042150393128395,0.15275415778160095,0.07781480997800827,-0.24152779579162598,-0.030177470296621323,0.11531972140073776,-0.22152164578437805,0.21698927879333496,-0.07989884167909622,-0.027501795440912247,0.12554752826690674,-0.10722225159406662,-0.12546813488006592,-0.029159964993596077,-0.16147193312644958,0.037142541259527206,0.02665514126420021,-0.11020674556493759,-0.306277871131897,-0.5993161201477051,0.10801398754119873,-0.1428951919078827,0.21711431443691254,0.07021882385015488,-0.03969070687890053,-0.05306988209486008,-0.05510861054062843,-0.008768036030232906,0.08687623590230942,-0.2731774151325226,0.2340632826089859,0.13955989480018616,0.1381692737340927,-0.026896659284830093,0.03747883811593056,-0.48408448696136475,-0.14803001284599304,-0.15081076323986053,-0.05770016461610794,-0.1192655861377716,-0.27623507380485535,-0.39961671829223633,0.025838550180196762,0.10120496898889542,-0.013919545337557793,0.06901136040687561,0.2802888751029968,0.023108670487999916,0.059304531663656235,0.05200890824198723,-0.45552781224250793,0.03795630857348442,-0.38411828875541687,0.0773908719420433,-0.1110072135925293,-0.2622319161891937,0.07384439557790756,0.11343972384929657,0.1089443638920784,0.15052735805511475,-0.2849692106246948,-0.3985057771205902,-0.019830266013741493,-0.25472292304039,-0.2314794361591339,0.004834762308746576,-0.009652969427406788,-0.5494889616966248,-0.014312200248241425,-0.026589659973978996,-0.367815762758255,-0.12432338297367096,-0.05678935348987579,0.043441660702228546,-0.2044723480939865,-0.032420363277196884,-0.3465997874736786,0.20673514902591705,-0.013934865593910217,-0.21889807283878326,0.01923724263906479,-0.025957660749554634,-0.020001806318759918,-0.25467178225517273,0.15025171637535095,0.1536015123128891,0.2512608766555786,-0.1382652223110199,-0.01101429108530283,-0.20028530061244965,0.06988625973463058,0.09823085367679596,-0.2728847563266754,-0.13629519939422607,-0.12534533441066742,-0.09455082565546036,0.1348506212234497,-0.08481054753065109,0.027791082859039307,0.06628952920436859,-0.2941882014274597,-0.13731428980827332,-0.12665165960788727,-0.49472126364707947,-0.11515907943248749,-0.07171649485826492,0.2092507928609848,0.2546635568141937,0.24501395225524902,-0.26899728178977966,0.19141875207424164,-0.28018662333488464,0.2462216317653656,0.23635369539260864,-0.04473762586712837,0.33710095286369324,0.09872789680957794,-0.2449033111333847,0.3228943645954132,-0.07153774797916412,-0.3551967740058899,0.3524116575717926,0.07612089812755585,0.03486645966768265,-0.19825629889965057,-0.26414576172828674,-0.0742533802986145,-0.2859005033969879,0.16156071424484253,-0.04259515926241875,-0.04263869673013687,-0.4951793849468231,-0.22157631814479828,-0.44127538800239563,0.024165846407413483,0.36674946546554565,-0.07470238953828812,0.05668855831027031,0.019413752481341362,-0.2218543440103531,-0.3182876408100128,0.040336571633815765,-0.03497656062245369,0.25516921281814575,-0.015005945228040218,-0.00996415875852108,-0.03375246375799179,-0.20149318873882294,0.0446246936917305,0.020717835053801537,-0.026060940697789192,0.27144598960876465,-0.24383117258548737,-0.17417030036449432,-0.12902000546455383,-0.05371374264359474,0.2812580168247223,-0.16066789627075195,-0.026225736364722252,-0.13241153955459595,-0.2734133303165436,-0.3556160628795624,0.10790563374757767,-0.07647998631000519,-0.2650315761566162,-0.05239175632596016,-0.04239564388990402,0.17371858656406403,-0.021141117438673973,-0.10852811485528946,-0.07504989206790924,-0.22406244277954102,-0.3377089202404022,0.13664847612380981,-0.12759199738502502,0.06200145184993744,-0.12360478192567825,0.4547905921936035,0.24110740423202515,0.1379176825284958,0.0336003415286541,-0.003466450609266758,-0.08245444297790527,-0.03409850224852562,0.21458376944065094,-0.21745814383029938,-0.13297638297080994,0.03469150885939598,-0.0846940204501152,0.008661005645990372,-0.11623574793338776,-0.05949847772717476,0.1722567081451416,-0.16160613298416138,0.16337212920188904,0.2003999501466751,0.13082708418369293,-0.13966327905654907,-0.33799996972084045,-0.5483405590057373,-0.10177486389875412,-0.11809101700782776,0.23884405195713043,-0.2910630702972412,-0.3042190670967102,-0.1499173790216446,-0.043054528534412384,0.008831264451146126,0.18209987878799438,-0.15270444750785828,-0.23051951825618744,-0.42974385619163513,0.08491697162389755,-0.01896015740931034,-0.19734597206115723,-0.08482758700847626,-0.2807403802871704,-0.12059956789016724,0.1028411015868187,-0.059007320553064346,0.17246338725090027,0.10211966186761856,0.09571012854576111,0.03534527122974396,-0.016929076984524727,-0.13903802633285522,0.13438405096530914,-0.4433250427246094,0.19591085612773895,0.10546479374170303,-0.13168996572494507,-0.26042482256889343,-0.1233886256814003,0.21945923566818237,-0.25712311267852783,-0.10372094064950943,-0.3082972466945648,-0.08613654971122742,-0.16804927587509155,-0.2767016589641571,0.32613998651504517,-0.15742075443267822,-0.058257754892110825,0.14599119126796722,0.03255794942378998,-0.06291304528713226,-0.08175916224718094,0.030697263777256012,-0.019108477979898453,-0.03648790344595909,0.15901251137256622,0.136543408036232,-0.007634946145117283,-0.0816270038485527,0.004714065231382847,0.054033063352108,0.2681643068790436,0.09233269095420837,-0.01943107508122921,-0.10185301303863525,0.2591947317123413,-0.053823165595531464,-0.05167410895228386,-0.029516417533159256,0.042829278856515884,-0.015523365698754787,0.08038296550512314,-0.20700624585151672,0.22650401294231415,0.010063235647976398,-0.11624148488044739,0.11537715047597885,-0.1600424200296402,-0.11750901490449905,-0.16742973029613495,0.3011086881160736,-0.6410030722618103,-0.3240618407726288,0.11676473915576935,0.23498466610908508,-0.26776325702667236,-0.0006922439206391573,0.24807840585708618,0.10874244570732117,0.06145235151052475,0.25130435824394226,-0.3315904438495636,-0.22088803350925446,-0.6801705956459045,-0.27248615026474,0.11873926222324371,-0.6893317699432373,0.07660467177629471,0.085466168820858,-0.5863434076309204,0.03388446941971779,-0.23561853170394897]},{"name":"dense_Dense2/bias","shape":[32],"data":[-0.06948167085647583,-0.04550650715827942,-0.08180008828639984,-0.12328916043043137,-0.06474334746599197,-0.06875655800104141,-0.11528544127941132,0.31796151399612427,0.14694394171237946,0.18392305076122284,-0.0008662358741275966,0.03206551820039749,-0.11312434077262878,-0.03012586012482643,-0.11015236377716064,-0.07265031337738037,-0.11948497593402863,-0.11708379536867142,-0.11685274541378021,-0.04918899014592171,-0.08446619659662247,-0.011996692046523094,-0.06154302507638931,0.016512934118509293,-0.11121399700641632,-0.06278873234987259,-0.07334569096565247,-0.07142596691846848,-0.014108201488852501,-0.06178095191717148,-0.10817278176546097,-0.10587898641824722]},{"name":"dense_Dense3/kernel","shape":[32,2],"data":[0.08308763056993484,0.015998106449842453,-0.3113037645816803,-0.479872465133667,-0.0821148008108139,0.06665781885385513,-0.20819373428821564,0.02046949602663517,-0.24933551251888275,0.06464961171150208,0.019741171970963478,0.013919241726398468,0.0028551185969263315,0.01212661899626255,-0.25002047419548035,-0.1595112830400467,-0.010875817388296127,-0.08846466988325119,-0.06161924824118614,-0.16481706500053406,0.040629953145980835,-0.3085351884365082,-0.1368127167224884,-0.13067957758903503,0.019302604719996452,-0.012987051159143448,0.28278490900993347,-0.007533595897257328,0.03351929411292076,0.0791972354054451,-0.007994262501597404,-0.15439575910568237,-0.0057292222045362,0.04890209063887596,-0.005319605115801096,-0.012624186463654041,0.018334344029426575,0.02637474611401558,-0.4526396691799164,0.08123411983251572,0.01135467179119587,0.012508701533079147,0.23675166070461273,0.2829658091068268,0.007300273980945349,0.004753393586724997,0.012699310667812824,-0.20079070329666138,0.014757644385099411,-0.004804516211152077,0.03260933980345726,-0.011878764256834984,-0.14280195534229279,-0.23889432847499847,-0.0004743639437947422,0.15419261157512665,-0.007520330138504505,0.06970406323671341,-0.04861925542354584,-0.020251553505659103,-0.29844439029693604,0.0038175792433321476,0.027090247720479965,0.06972328573465347]},{"name":"dense_Dense3/bias","shape":[2],"data":[-0.34420132637023926,-0.45685529708862305]}]}