{"stateSize":11,"actionSize":2,"weights":[{"name":"dense_Dense1/kernel","shape":[11,64],"data":[-1.0287657976150513,-0.09089150279760361,-0.10994738340377808,-2.772806167602539,3.2399940490722656,0.6395906805992126,0.13374698162078857,0.37649667263031006,-1.3860137462615967,-0.7183325290679932,-1.6553609371185303,0.60711270570755,1.4015198945999146,-3.343153476715088,2.456308364868164,-1.461443543434143,1.5482752323150635,0.3023335933685303,1.4550975561141968,-0.4038221836090088,0.5011101365089417,-1.899471640586853,-2.5754787921905518,-0.1188514456152916,1.7203370332717896,0.23982177674770355,-0.49733713269233704,2.5608248710632324,1.064752459526062,1.6121817827224731,0.36267632246017456,-3.393468141555786,0.1540343463420868,-1.432814598083496,-1.793491244316101,-0.4685518145561218,-0.4354708790779114,-0.7921105623245239,-0.021421315148472786,-0.19227515161037445,2.221346616744995,0.2785445749759674,-2.1557445526123047,-0.7475061416625977,1.9954034090042114,0.16604101657867432,1.05414879322052,0.40893498063087463,0.9970548748970032,1.246034860610962,-2.1765244007110596,-0.5585730075836182,-1.9712234735488892,0.5783077478408813,3.0308430194854736,-1.0280768871307373,0.04750257357954979,-0.1638384461402893,2.320610523223877,-1.2776092290878296,0.3066504895687103,-1.0318394899368286,-0.02564079686999321,0.31060662865638733,-0.835246741771698,-0.39604276418685913,0.4690709114074707,-0.594951868057251,0.23150351643562317,1.0521695613861084,2.492537260055542,-0.8909077644348145,-1.6118814945220947,-0.7470947504043579,1.5586588382720947,1.004345178604126,2.3992600440979004,-2.954045534133911,-6.705814361572266,-0.46632125973701477,1.1125414371490479,-2.532536029815674,-4.187524795532227,0.6182711124420166,0.7882135510444641,-2.2549848556518555,-2.232515335083008,-2.4250881671905518,1.4440773725509644,-0.510600209236145,2.114482879638672,0.39342010021209717,2.0621681213378906,1.745011329650879,-1.2117537260055542,-1.2218056917190552,-1.6869155168533325,1.1589988470077515,-0.41478627920150757,-3.217562437057495,0.16440579295158386,2.689875602722168,1.4884675741195679,0.832879900932312,2.98826003074646,-3.3890652656555176,0.07051267474889755,-2.3653628826141357,-7.831846714019775,-0.5948322415351868,0.347111314535141,1.5833970308303833,0.08152352273464203,-0.7570062279701233,-2.1287424564361572,-0.1485522836446762,-0.6108540892601013,0.4720999598503113,1.7000946998596191,-0.7626093626022339,-1.0373435020446777,-1.5137652158737183,-0.04480917006731033,-0.647423505783081,0.7993961572647095,-1.8705768585205078,-0.03245111554861069,-1.3565007448196411,-0.004537796135991812,-0.6336230635643005,-0.5250512361526489,-0.09835413098335266,-0.1190003827214241,0.9194440841674805,2.8354110717773438,0.9011799097061157,0.012926988303661346,-0.8825817108154297,-1.1050032377243042,1.0211225748062134,-1.3273981809616089,-1.1002371311187744,1.324386477470398,-0.6225391626358032,0.16541485488414764,-0.41245976090431213,2.137444019317627,1.0062947273254395,1.9483418464660645,-1.9758641719818115,-0.9284618496894836,0.23675863444805145,0.20160594582557678,-0.3755761384963989,-0.09527561813592911,2.053023338317871,1.3453994989395142,-0.4398650527000427,-0.16858020424842834,-2.3276865482330322,1.6834158897399902,-0.3223293423652649,-1.9645801782608032,1.0383696556091309,-0.5975053906440735,-2.299177408218384,1.1573048830032349,0.16613174974918365,-0.3743673861026764,-0.4667086899280548,0.4768993854522705,-0.363217830657959,-1.1247483491897583,0.3365229368209839,1.3040852546691895,-1.7604091167449951,0.9867640733718872,-0.5317237973213196,-3.002347230911255,-0.49093496799468994,1.4534703493118286,-0.085880346596241,0.5313905477523804,-0.8398593664169312,-2.0975749492645264,0.3646256923675537,1.297135353088379,-0.0169213879853487,2.0723512172698975,-1.2009198665618896,-0.4828512668609619,-0.10133320838212967,-0.7360141277313232,-0.625438928604126,-0.5701517462730408,0.22186103463172913,-0.613099992275238,0.9982597231864929,2.5509111881256104,0.759366512298584,-1.0079232454299927,-0.7900417447090149,-0.7321849465370178,-0.5038399696350098,-0.10863891243934631,-1.239550232887268,0.36122408509254456,0.08652637898921967,0.20912258327007294,0.24961654841899872,2.081112861633301,-0.10513629764318466,2.0418384075164795,-1.562273621559143,-1.203365445137024,-0.35512182116508484,-0.5008962750434875,0.13649556040763855,1.4678140878677368,0.3989955484867096,0.6567396521568298,-0.36129432916641235,1.5359736680984497,-1.9048818349838257,1.8958028554916382,0.45853152871131897,-1.1113766431808472,1.0399584770202637,0.4600636661052704,0.29038357734680176,1.2745254039764404,0.9454230666160583,-0.12963636219501495,-0.2995741367340088,1.1620569229125977,0.6002337336540222,-1.8737329244613647,-0.795050859451294,1.225746512413025,-1.802963376045227,1.2912366390228271,-0.41274458169937134,-2.0750162601470947,2.87113356590271,1.107876181602478,0.31371787190437317,-0.43531492352485657,-0.9880053997039795,-1.6951446533203125,-1.7703397274017334,1.9221633672714233,0.4899446964263916,0.807223916053772,-0.3544521927833557,-0.1920776516199112,0.28672319650650024,-0.10269367694854736,-0.5360870361328125,-1.219765067100525,-0.3837665319442749,-0.6263179183006287,-0.251412957906723,-0.37802577018737793,-0.5193137526512146,-0.05948168784379959,0.3393706977367401,0.4470016658306122,-0.05619635432958603,-0.12673425674438477,-0.6438629627227783,-0.6090024709701538,-0.5189050436019897,-0.2773599624633789,0.7287871837615967,-0.34802380204200745,0.13820688426494598,0.295465350151062,0.15949054062366486,-0.1310187429189682,-0.031041625887155533,0.36797600984573364,0.02235237881541252,-0.8166658878326416,-0.3538546860218048,0.07002106308937073,-0.1785515397787094,-0.45115894079208374,0.601640522480011,-0.590039074420929,-0.17635969817638397,-0.13597393035888672,-0.22450290620326996,-0.20478110015392303,-0.15457431972026825,0.2325274646282196,-0.10804976522922516,0.3067489564418793,-0.7773353457450867,-0.2211485356092453,0.5019977688789368,-0.7676874399185181,-0.5552729964256287,0.1525309979915619,-0.33853766322135925,0.19826878607273102,0.2244715541601181,-0.15505656599998474,0.12594889104366302,-0.5248924493789673,-0.5519537925720215,-0.18622446060180664,0.4018867015838623,-0.643058180809021,0.4473600685596466,0.042715996503829956,-0.4744845926761627,0.0854652002453804,-0.08914990723133087,-0.23470129072666168,0.49681416153907776,-0.15711386501789093,-0.20188972353935242,0.18514490127563477,0.3223472833633423,-0.3430260717868805,0.4344891607761383,-0.1939215213060379,-0.8983275890350342,-0.8264257311820984,0.03745630756020546,0.5252404808998108,-0.5614855885505676,-0.8783969879150391,1.4164762496948242,-0.14983856678009033,-0.6738930940628052,0.12093628942966461,1.1264207363128662,0.6264458298683167,-1.1391322612762451,-0.46227121353149414,-0.05386528745293617,-0.4442632496356964,-0.6271728277206421,0.047461703419685364,-0.47559604048728943,-0.2148411124944687,-0.05181397497653961,0.033404313027858734,-0.6365377306938171,0.00670094508677721,0.16973114013671875,0.17270348966121674,1.3027681112289429,0.11705150455236435,-0.6764306426048279,0.05307618901133537,-0.0522252656519413,-0.87858647108078,-0.9417728185653687,-0.5447694063186646,-0.13902102410793304,-0.8886839747428894,-1.0460665225982666,0.8461904525756836,0.5355097055435181,0.6939387321472168,1.0261508226394653,-0.752071738243103,-0.22396746277809143,-0.011107362806797028,0.38780155777931213,-0.7073450684547424,-0.5139755606651306,-0.6557368636131287,-0.22485169768333435,-0.6966615319252014,-0.6840907335281372,-0.689287006855011,0.18139800429344177,-0.05962483584880829,-0.09415328502655029,-0.43705710768699646,1.0193291902542114,0.05775957927107811,0.3536458909511566,-0.8181354403495789,-0.046572647988796234,0.23350806534290314,0.0984252542257309,-1.3268659114837646,0.21698379516601562,-0.12459469586610794,0.20316118001937866,-0.3308728337287903,-0.26038944721221924,-0.1784587800502777,-0.3831944167613983,-0.577185869216919,-0.15231725573539734,0.18079471588134766,-0.9338189959526062,-1.7124805450439453,-0.14867423474788666,0.11465489864349365,0.323560893535614,0.15015722811222076,-0.6878769993782043,-0.3958025276660919,0.3423479497432709,0.11833883076906204,-0.9798003435134888,-0.20171114802360535,-0.6354215741157532,-0.4256391227245331,-0.38494187593460083,-0.13796085119247437,-1.4923439025878906,0.0429995059967041,0.38665851950645447,-0.13996678590774536,-1.405438780784607,-0.7815302610397339,-0.22907397150993347,-0.6249471306800842,-0.07606557011604309,-0.1187111958861351,-0.40140286087989807,-1.1649283170700073,0.24496200680732727,-0.1288144886493683,-1.095856785774231,-0.08724772185087204,-0.6538147926330566,0.27746427059173584,0.19590267539024353,0.19969435036182404,-0.7283230423927307,-0.1741541177034378,-0.2189497947692871,-0.42929601669311523,-0.30211925506591797,-0.10682851076126099,-0.6795579791069031,-1.4125548601150513,-0.4351772964000702,-0.40319734811782837,-0.5531263947486877,0.39499709010124207,0.008105263113975525,0.09164568036794662,-0.8050038814544678,0.2919411063194275,-0.24731361865997314,0.6745710968971252,-0.4526146352291107,-0.020172396674752235,-0.34969276189804077,0.15402917563915253,-0.13283900916576385,0.1105598509311676,-0.684394359588623,0.12853677570819855,-0.1193854957818985,0.1651100516319275,-0.5308567881584167,-0.041763100773096085,0.33354276418685913,-0.4454745352268219,0.1947851926088333,-0.400908499956131,-0.47575610876083374,-0.5150560140609741,0.26092788577079773,0.4757598042488098,-0.27798622846603394,-0.09884709119796753,-0.22813832759857178,-0.052915558218955994,0.04533585160970688,-0.17774254083633423,-0.4505918323993683,-0.8079347014427185,-0.26912209391593933,-0.3847545385360718,-0.12050715833902359,-0.16237033903598785,-0.773144543170929,0.1398589015007019,-0.31226620078086853,-0.47182801365852356,0.08659256249666214,-0.5237420797348022,0.6575895547866821,-0.18743227422237396,-0.4156751036643982,-0.08224834501743317,-0.6217753291130066,-0.31021666526794434,-0.45976418256759644,0.3796997368335724,0.12829691171646118,-1.0721917152404785,-0.4420385956764221,0.4026535451412201,0.26023703813552856,-0.04153404384851456,0.11543293297290802,-0.22249194979667664,0.12530773878097534,-0.14165715873241425,-0.6865663528442383,-0.3189370036125183,-0.23203924298286438,1.1688261032104492,0.0609065406024456,-0.8249097466468811,0.4105757772922516,0.015338784083724022,0.040370676666498184,-0.8155128955841064,-0.663787305355072,-0.24200625717639923,-0.7490315437316895,0.008710568770766258,-0.22422465682029724,0.3200460374355316,0.3390198051929474,-0.1759987622499466,0.3135981261730194,0.43759167194366455,-0.5919654965400696,0.007473286706954241,0.03703264892101288,0.08251432329416275,-0.28723636269569397,0.06817446649074554,0.0010393288685008883,-0.16023343801498413,0.5215784907341003,-0.24518346786499023,-0.6945088505744934,0.6078590154647827,-0.08543168753385544,-0.4324875771999359,0.4008864760398865,0.0710577741265297,-0.6752141714096069,-0.14941167831420898,-0.15205524861812592,-0.8985108137130737,0.034923065453767776,-0.37741056084632874,0.2713238298892975,-0.2807501554489136,0.4682747423648834,0.5585935711860657,-0.6470566987991333,0.1392708718776703,-0.475638210773468,-0.34444135427474976,-0.49636855721473694,0.052420977503061295,-0.7438267469406128,-0.29461440443992615,-0.7716419100761414,0.2239343225955963,-0.3508647084236145,0.1560676395893097,-0.7399236559867859,-0.264840304851532,-0.11537955701351166,0.33021652698516846,-0.16154633462429047,-0.18375203013420105,-0.8727453351020813,-0.04719283804297447,-0.08230195194482803,0.9584371447563171,-0.06911470741033554,-1.0169405937194824,-0.5321030616760254,0.03535236418247223,0.08499813824892044,0.3322330415248871,-0.4089280664920807,-1.1191861629486084,-0.23454566299915314,-0.3156731128692627,0.4024193584918976,0.46743685007095337,0.09560896456241608,-0.18398936092853546,-0.40894749760627747,0.18501703441143036,-0.5479175448417664,-0.03429241478443146,0.044665344059467316,-0.20712557435035706,0.34254884719848633,0.0642535462975502,-0.40763425827026367,-0.4399128258228302,-0.21755419671535492,-0.15403452515602112,0.3724820613861084,0.7577725052833557,0.36056652665138245,0.003613043809309602,-0.2141573131084442,-0.11041061580181122,0.33195358514785767,-0.33749324083328247,0.17660368978977203,-0.7525988817214966,0.40434199571609497,0.38373902440071106,0.26656267046928406,-0.05655333399772644,-0.40201544761657715,0.2844538986682892,-0.6537734270095825,0.018559332937002182,0.2040621042251587,-0.09521355479955673,0.2970009446144104,0.045704711228609085,-0.657302975654602,-0.5085588097572327,0.030842093750834465,-0.2188432514667511,0.24961622059345245,-0.8730680346488953,0.37422487139701843,-0.4474984407424927,-0.1422458440065384,-0.21608464419841766,-0.2913272976875305,-0.060640547424554825,0.3340614140033722,-0.12331099808216095,0.013824316672980785,-0.051331378519535065,-0.7155765295028687,-0.21087706089019775,-0.057390954345464706,-0.5025796294212341,0.829365611076355,0.12369434535503387,0.0049424548633396626,-0.07813239842653275,-0.1802360564470291,-0.2605353891849518,0.19081524014472961,-0.008477449417114258,-0.012027479708194733,-0.11815984547138214,-0.07398204505443573,-0.19421890377998352,-0.0722760409116745,-0.3726816475391388,-0.5232812166213989,-0.21290545165538788,0.49990975856781006,-0.19264204800128937,-0.2348487377166748,0.030911926180124283,0.0674656331539154,-0.1435738503932953,0.2593047618865967,0.03688196837902069,-0.06278946995735168,-0.2102871984243393,0.08443109691143036,0.9020065665245056,0.18640734255313873,0.03477534279227257,0.8793327808380127,-0.26712682843208313,0.21361283957958221,-0.1949394792318344,0.16997256875038147,-0.2376839518547058,-0.6999030113220215,0.012108364142477512,-0.19644583761692047,0.28641843795776367,0.4189251959323883,0.07920137792825699,0.29701897501945496,0.28480300307273865,0.2313900738954544,0.4313485324382782,-0.34615573287010193,0.05600110441446304,0.34027767181396484,0.4808434844017029,0.19586189091205597,-0.05581272393465042,0.25100356340408325,-0.564832866191864,0.3868878483772278,0.41400718688964844,-0.39955994486808777]},{"name":"dense_Dense1/bias","shape":[64],"data":[-0.4015165865421295,-0.29417988657951355,-0.4170224666595459,-0.21969105303287506,-0.012131405994296074,-0.5079987645149231,-0.22327667474746704,-0.505933403968811,-0.13155411183834076,-0.24073061347007751,-0.17320877313613892,-0.1283239871263504,-0.4222046732902527,-0.2650618851184845,-0.2673951983451843,-0.20936685800552368,-0.6077097058296204,-0.5185191631317139,-0.2507816553115845,-0.39025044441223145,-0.1947687417268753,-0.1590898483991623,-0.2934969961643219,-0.21762332320213318,-0.3018631637096405,-0.559979259967804,-0.6924911737442017,-0.03580388054251671,-0.6052693128585815,-0.37927091121673584,-0.4680668115615845,0.023070456460118294,-0.3938204348087311,-0.28065723180770874,-0.4415064752101898,-0.09367237985134125,-0.07453589141368866,-0.05346689000725746,-0.24984140694141388,-0.2928670048713684,-0.07153062522411346,-0.6335146427154541,-0.4588034749031067,-0.43383660912513733,-0.20358304679393768,-0.4836311638355255,-0.10046221315860748,-0.45761755108833313,-0.3950304090976715,-0.43351003527641296,-0.19421330094337463,-0.5401529669761658,-0.36113789677619934,-0.1781185418367386,-0.3674440383911133,-0.31948429346084595,-0.488565057516098,-0.16356587409973145,-0.4935193359851837,-0.16559967398643494,-0.5219674706459045,-0.35452011227607727,0,-0.6277070641517639]},{"name":"dense_Dense2/kernel","shape":[64,32],"data":[0.1189289465546608,-0.13887785375118256,-0.3451535403728485,-0.3832208812236786,-0.2582210302352905,-0.0018451862270012498,-0.08848325163125992,-0.06171075254678726,-0.056124430149793625,0.05908353254199028,0.040877532213926315,-0.2559402585029602,0.15645548701286316,-0.11656871438026428,-0.14629700779914856,-0.1518871933221817,-0.08105425536632538,-0.059154167771339417,-0.21968674659729004,-0.10069350898265839,0.2129918783903122,0.04095699265599251,-0.08172624558210373,-0.2733893096446991,-0.15662840008735657,0.013435442000627518,-0.7737500667572021,0.2371808886528015,-0.019332479685544968,-0.03818090632557869,-0.46606937050819397,-0.06221320852637291,0.01299833133816719,-0.09937714785337448,-0.6206503510475159,-0.21417705714702606,-0.12062543630599976,-0.08701221644878387,0.11501673609018326,0.17538845539093018,-0.0948161631822586,-0.15470190346240997,0.08801813423633575,-0.07234501093626022,0.21559597551822662,-0.11255646497011185,-0.1007184162735939,-0.43025434017181396,-0.07674840092658997,-0.027910644188523293,-0.1781270056962967,0.07734871655702591,0.11160547286272049,0.04901620000600815,-0.17589662969112396,-0.15238896012306213,0.07469238340854645,0.11262542754411697,-0.0004883122746832669,0.15026822686195374,0.04966177046298981,-0.12526081502437592,-0.1588379442691803,0.11161581426858902,-0.027857724577188492,-0.04982474073767662,-0.7144320607185364,-0.10550525784492493,-0.24942362308502197,0.0506962351500988,-0.06529218703508377,1.0086486339569092,-0.7355262637138367,0.4406164884567261,0.29524874687194824,-0.2703132927417755,-0.09793369472026825,0.02747008204460144,-0.26619991660118103,0.014884160831570625,-0.3698779046535492,0.05503910034894943,0.130468487739563,0.0011516225058585405,0.10117649286985397,-0.09239108115434647,-0.06661974638700485,-0.4710492491722107,-0.3213164210319519,0.14746221899986267,-2.359510898590088,-0.2997203767299652,0.09624187648296356,-0.37558943033218384,0.223404198884964,-0.02503002993762493,-0.08161287754774094,-0.1075868159532547,-0.4649292826652527,0.3037451207637787,0.17888383567333221,-0.046366360038518906,-0.18759480118751526,0.06252148747444153,-1.171215295791626,-0.37393903732299805,-1.430599570274353,-0.2952406704425812,-0.2761978507041931,-0.3225370943546295,0.046760961413383484,0.05100436881184578,-0.5268510580062866,-0.14703375101089478,-0.06107574328780174,-0.11407520622015,-0.06863173842430115,-0.3195379376411438,-0.17687591910362244,-1.1001579761505127,0.08819972723722458,-0.08823630958795547,-0.7285504341125488,-0.12493278831243515,-0.15241947770118713,-0.37754538655281067,0.2771466374397278,-0.020282354205846786,-0.20918188989162445,-0.05410722270607948,0.6984357237815857,0.07973798364400864,0.03181140124797821,-0.011264179833233356,-0.07131057977676392,0.2249181568622589,0.4274349808692932,-0.21892474591732025,-0.5303239822387695,-0.13134725391864777,-0.42219680547714233,-0.07612219452857971,-0.15126566588878632,0.05209290608763695,-2.2564311027526855,0.18021205067634583,0.13530926406383514,-0.17516450583934784,-0.08851452171802521,-0.17599257826805115,0.08629780262708664,0.09865854680538177,-0.5547977685928345,0.07983240485191345,0.0442354753613472,-0.16896386444568634,-0.30262887477874756,0.10569021105766296,0.1642932891845703,-0.4902757406234741,0.050425443798303604,-0.20350831747055054,-0.33800217509269714,-0.24342331290245056,0.009624813683331013,0.08094799518585205,-0.14791303873062134,-0.15936267375946045,0.023324500769376755,-0.3324442207813263,0.3191069960594177,-1.2286021709442139,-0.1700185388326645,0.03862955421209335,0.07306165248155594,-0.2226897031068802,0.32187172770500183,0.24396845698356628,0.07196507602930069,-0.0035390921402722597,0.08624108135700226,-0.2958959937095642,-0.16527026891708374,-0.1434105783700943,-0.09693554043769836,-0.026782497763633728,-0.02795574814081192,0.22662384808063507,0.23434297740459442,0.11436362564563751,0.06827546656131744,-0.04983684793114662,-0.28550851345062256,-0.14973318576812744,0.4754472076892853,0.19358213245868683,0.03217524662613869,-0.2994219660758972,-0.30041709542274475,0.23772422969341278,0.3986762762069702,0.9681821465492249,-1.0404186248779297,-0.5071365833282471,-0.08596936613321304,-0.12042225897312164,0.12413466721773148,-0.13838598132133484,-0.48368406295776367,-0.06236770376563072,-0.21937210857868195,-0.19448551535606384,0.4130183756351471,-0.264483779668808,-0.052387386560440063,-0.026439243927598,0.4755011200904846,-0.3181699514389038,0.058899056166410446,0.040517181158065796,-0.5054998993873596,0.5686192512512207,-0.6934154629707336,-0.13683763146400452,-0.1538367122411728,-0.040758006274700165,-0.4247457683086395,-0.5323390960693359,0.14726722240447998,0.10092952847480774,-0.15836204588413239,0.18589119613170624,-0.06979726999998093,0.6801542639732361,0.19696930050849915,-0.5241188406944275,-0.21650949120521545,0.037246230989694595,0.16972114145755768,-0.2950316071510315,-0.7369514107704163,-0.056852951645851135,0.2179429978132248,-0.01685229502618313,-0.42768892645835876,-0.13345344364643097,0.051852136850357056,-0.251787930727005,-0.03483177721500397,0.07173369824886322,-0.4981333017349243,-0.06388810276985168,0.1625571995973587,-0.28084737062454224,-0.5491021871566772,-0.19297727942466736,0.07431693375110626,0.07766902446746826,-0.034332551062107086,-0.1198352724313736,-0.12481746077537537,0.011207020841538906,0.37335917353630066,-0.009461434558033943,-0.5484712719917297,0.06464768201112747,-0.15353433787822723,-0.8050917983055115,-0.280672162771225,-0.015598946250975132,-0.033874429762363434,0.07115718722343445,-0.5481746196746826,0.2156199812889099,-0.04288407042622566,0.12061087787151337,-0.20060409605503082,-0.07222668081521988,-0.08310636878013611,-0.348086953163147,0.032107383012771606,0.15503355860710144,-0.0385708324611187,-0.007719413843005896,-0.22752083837985992,-0.19682173430919647,-0.0922255590558052,-0.280612975358963,-0.35909390449523926,-0.25471916794776917,0.3947182595729828,-0.046549003571271896,0.09286130219697952,0.1307016760110855,-0.1386721283197403,0.05650344863533974,0.13553330302238464,-0.13993366062641144,-0.025564491748809814,-0.023167982697486877,-0.1695353239774704,-0.21107995510101318,-0.06877017021179199,-0.18660598993301392,-0.043948885053396225,0.23230788111686707,-0.2516847848892212,0.0554051399230957,-0.3417935073375702,-0.19060535728931427,-0.35221782326698303,0.045845940709114075,0.10526932775974274,0.0816851556301117,-0.3372489809989929,0.13010597229003906,0.10219796001911163,0.032806165516376495,-0.21229255199432373,-0.22092285752296448,-0.2695976197719574,0.12244662642478943,0.1870652735233307,-0.07644987106323242,0.057435255497694016,-0.045883335173130035,0.09017392992973328,0.18999096751213074,-0.7489476799964905,0.06881263852119446,-0.5992868542671204,-0.8476549983024597,-0.2403925657272339,0.06894872337579727,-0.14267536997795105,0.09110559523105621,0.2709431052207947,-0.4029231071472168,0.15641476213932037,0.026274768635630608,0.10417863726615906,0.16291670501232147,-0.06589183211326599,-0.3278099298477173,-0.10706523805856705,-0.09357722103595734,-0.7893534898757935,0.13787537813186646,-0.32716503739356995,-0.08165569603443146,0.03445295989513397,0.06202663481235504,-0.20917879045009613,0.015136899426579475,-0.15217448770999908,-0.5701558589935303,-0.020055776461958885,-0.3304109275341034,-0.06079845130443573,0.25218409299850464,0.3756181001663208,0.06491401046514511,-0.3638722896575928,0.20602257549762726,-0.18705013394355774,0.023878388106822968,0.06084879860281944,0.24297264218330383,0.14854909479618073,0.06048161908984184,0.1405225545167923,-0.23000095784664154,-0.09241744875907898,-0.03704274445772171,0.07465096563100815,-0.4755990207195282,-0.14806808531284332,0.3551787734031677,-0.5984710454940796,-0.03647923469543457,-0.08457516878843307,-0.004018042702227831,-0.13270531594753265,-0.23703408241271973,-0.19885140657424927,-0.24237334728240967,-0.10183260589838028,0.3108983039855957,-0.06638351082801819,-0.32109588384628296,0.19629932940006256,0.02080068364739418,0.6200863122940063,0.2749861478805542,-0.38080257177352905,-0.5919364094734192,-0.009183337911963463,-0.12340742349624634,-0.13470855355262756,-0.1891084909439087,0.32357057929039,-0.20104260742664337,0.09404381364583969,0.035373348742723465,-0.14623060822486877,0.18080013990402222,0.07209847867488861,0.14786092936992645,0.15036055445671082,0.19756640493869781,-0.3699820339679718,-0.12026319652795792,-0.30159950256347656,-0.0705016702413559,-0.41751477122306824,0.11460503935813904,-0.11069326102733612,-0.17766880989074707,0.24947190284729004,-1.3981502056121826,-0.23252786695957184,-0.2299933284521103,-0.08659395575523376,0.1636740267276764,-0.8795364499092102,-0.6467637419700623,-0.37989509105682373,0.7206201553344727,0.20715796947479248,0.15703468024730682,0.09875500202178955,-0.16843144595623016,0.21410106122493744,-0.09995027631521225,0.028464581817388535,0.06479164958000183,0.4057576060295105,-0.023686392232775688,-0.2992551028728485,-0.8148797154426575,-0.00012743101979140192,0.05025160685181618,-0.7801064252853394,-0.06773871183395386,0.1253712773323059,-0.10687751322984695,-0.39708951115608215,0.27325040102005005,-0.07575646787881851,0.027965500950813293,-0.11027185618877411,0.07437119632959366,0.006384480744600296,0.04292310029268265,0.19441448152065277,0.17200744152069092,0.49780797958374023,0.4200887978076935,0.011920608580112457,0.22675497829914093,-0.08013944327831268,-0.3383331000804901,0.06232194975018501,0.24481944739818573,-0.04762953519821167,0.24564014375209808,0.16219918429851532,-0.28977885842323303,-0.9867161512374878,0.004119682591408491,-0.09711509197950363,-0.013444777578115463,-0.15563370287418365,0.22876550257205963,-0.09872971475124359,-0.25863125920295715,-0.1967245638370514,-0.14168588817119598,-0.10491523146629333,-0.09976258873939514,0.04343033581972122,-0.17527681589126587,0.19914717972278595,-0.05542761832475662,-0.29066330194473267,-0.17906290292739868,0.009892333298921585,-0.18190404772758484,-0.21744687855243683,-0.013171276077628136,-0.11474551260471344,-0.007232096046209335,-0.07427451759576797,-0.17401191592216492,-0.05705934017896652,0.21386191248893738,0.14129863679409027,0.2327270358800888,-0.12449558824300766,-0.2377799153327942,-0.16129688918590546,0.07275324314832687,0.21235796809196472,-0.02744431048631668,-0.06444878876209259,0.195857971906662,0.09006727486848831,-0.04456312209367752,0.07686742395162582,-0.21810762584209442,0.07002127915620804,-0.0849381610751152,-0.2629522979259491,-0.08082985877990723,-0.47242406010627747,-0.1331849843263626,0.0067323921248316765,-0.0790281817317009,-0.2009647935628891,0.01724329963326454,-0.5585905313491821,-0.008066422306001186,0.20815850794315338,-0.3312174677848816,0.009919866919517517,-0.2697046101093292,0.12631095945835114,-0.23885998129844666,-0.07741840928792953,-0.22602078318595886,-0.1561950296163559,-0.2352239191532135,-0.2155378758907318,-0.3097324073314667,0.04800610616803169,-0.24638202786445618,-0.3265407681465149,-0.21440163254737854,0.3463441729545593,-0.13878680765628815,-0.3461354374885559,0.012309223413467407,0.0783885046839714,-0.09527740627527237,-0.020878566429018974,-0.25994792580604553,-0.27121835947036743,-0.7306084036827087,-0.08157878369092941,-0.12396170198917389,0.23612946271896362,0.2352590411901474,-1.9921293258666992,-0.38180363178253174,-0.2327171415090561,-0.8742488026618958,-0.016543211415410042,0.2223110944032669,-0.10223297774791718,-0.3877560794353485,1.0196715593338013,0.0035072059836238623,0.07948265969753265,0.06986377388238907,-0.011093689128756523,-0.05494031682610512,-0.021366961300373077,-0.2037712037563324,0.049305517226457596,-0.11663229018449783,-0.31274744868278503,0.08491706848144531,0.31001895666122437,-0.2179613560438156,-0.7993312478065491,0.15675663948059082,-0.26362189650535583,-0.03231138736009598,0.02305695228278637,-0.14306886494159698,-0.14995810389518738,0.059555068612098694,-0.07454215735197067,0.33976680040359497,0.1482521891593933,0.02433599904179573,-0.5505318641662598,0.5113780498504639,-0.22782844305038452,-0.06628167629241943,-0.1399288773536682,0.14067773520946503,0.6781083345413208,-0.41299742460250854,-0.23928141593933105,0.16975392401218414,-0.31938040256500244,-0.012810501269996166,-0.026270641013979912,0.29061731696128845,-0.15954463183879852,-0.3550902009010315,-0.036308351904153824,0.11166244745254517,0.05414097011089325,0.22847862541675568,-1.0610878467559814,-0.014889191836118698,-0.20556096732616425,-0.1924780309200287,0.5560466647148132,0.27028918266296387,-0.20196183025836945,0.02387355826795101,0.07230853289365768,0.06875216215848923,0.25883597135543823,0.062184110283851624,-0.20559479296207428,-0.6236547231674194,-0.0857599675655365,-0.19125504791736603,-0.03977070748806,-0.07868446409702301,-0.05144414305686951,0.06071954593062401,0.049876220524311066,-0.17522072792053223,-0.3790300786495209,0.0629335418343544,-0.009540279395878315,-0.37570834159851074,0.23858949542045593,0.1271255761384964,0.0834198072552681,0.07741619646549225,-0.11603487282991409,-0.2622464597225189,-0.091669000685215,-0.14470751583576202,0.04079093039035797,0.09174808859825134,0.30351412296295166,1.0676014423370361,0.01984802447259426,-0.2662791609764099,-0.0639476552605629,0.0712718591094017,-0.26758691668510437,-0.18706583976745605,-0.00027412534109316766,-0.27941980957984924,0.010763171128928661,0.1332976073026657,-0.21912528574466705,-0.12365700304508209,-0.0691046491265297,-0.22161532938480377,-0.39596083760261536,0.2161920666694641,0.10831855982542038,0.19580402970314026,-0.12596580386161804,-0.18906264007091522,0.05890370532870293,-0.6547225713729858,-0.08889323472976685,-0.17481781542301178,-0.18491625785827637,-0.17121167480945587,-0.0019287263276055455,-0.2632488012313843,-0.044044774025678635,0.0548471100628376,-0.9995448589324951,-0.9122762680053711,-0.38778597116470337,0.1241089329123497,0.014489307068288326,-0.040775325149297714,-0.6104763150215149,-0.12809285521507263,-1.7466521263122559,-0.5934594869613647,-0.03882961347699165,-0.1132597103714943,-0.08640403300523758,-0.22299350798130035,-0.48949500918388367,-0.10583475232124329,-0.18020962178707123,0.04627692326903343,-0.3171253800392151,-0.14296410977840424,0.11345386505126953,-0.8441632986068726,-0.28327322006225586,0.15680676698684692,-2.551180839538574,-0.054076049476861954,0.09893709421157837,-0.6562069654464722,0.08530451357364655,0.023846259340643883,0.1564556062221527,-0.03789401799440384,-0.13658574223518372,-0.2706313729286194,-0.20435979962348938,0.2350693643093109,0.08429907262325287,0.12432969361543655,-1.0809037685394287,-0.1890045404434204,-0.9474906325340271,-0.8068951368331909,0.08360743522644043,-0.11084291338920593,-0.2698322832584381,0.07318460196256638,0.2548995912075043,-0.09377571195363998,-0.2340044528245926,-0.08497005701065063,-0.19738224148750305,-0.2039949595928192,-0.01186110358685255,-0.25343605875968933,0.23396918177604675,0.3644152581691742,-1.1991820335388184,-0.15773698687553406,0.006013635545969009,-0.13497866690158844,-0.28269609808921814,-0.10727077722549438,0.1960582435131073,-0.15182222425937653,-0.44054335355758667,-0.05381561070680618,0.2525511682033539,-0.23315805196762085,0.1905606985092163,0.04729689285159111,-0.038270171731710434,-0.2501164972782135,-0.29392364621162415,0.11326480656862259,-0.04640872776508331,0.12134384363889694,-0.2810002267360687,0.08915779739618301,0.07993648946285248,-0.35836413502693176,0.010572504252195358,-0.09116412699222565,-0.0021808999590575695,-0.22074666619300842,-0.043544452637434006,-0.09215694665908813,-0.1746014803647995,0.2994649410247803,-0.34541040658950806,-0.13287977874279022,-0.06752576678991318,-0.027505917474627495,-0.2079046070575714,-0.2900519371032715,-0.07535509765148163,-0.16908563673496246,-0.3811964690685272,-0.02311559207737446,-0.028820553794503212,0.045285653322935104,-0.11137256026268005,-0.004245975986123085,0.1280582696199417,-0.07979736477136612,0.014429943636059761,0.046787362545728683,-0.12880180776119232,-0.215425506234169,-0.20495188236236572,0.08395852148532867,0.0674438625574112,-0.0033582625910639763,-0.3779231607913971,-0.27547430992126465,-0.15390560030937195,-0.07289417088031769,-0.3058628439903259,0.14648982882499695,0.02855563536286354,-0.36792057752609253,0.16920635104179382,0.1700028032064438,-0.1036176010966301,-0.08760903775691986,-0.04244202747941017,-0.04299186170101166,0.24672465026378632,-0.4103383421897888,-0.47305360436439514,0.16215883195400238,0.03105371817946434,-0.2211272269487381,-0.1289677768945694,0.016066687181591988,0.044595859944820404,0.1556951403617859,-0.5148887038230896,-0.18463729321956635,-0.07389090210199356,-0.06411975622177124,-0.08208498358726501,-0.18282318115234375,0.16016091406345367,-0.0584859699010849,-0.13454976677894592,-0.08036106079816818,-0.09643395990133286,0.11733606457710266,-0.3203990161418915,-0.3739768862724304,0.026625819504261017,-0.04783855378627777,-0.431806743144989,-0.022501647472381592,0.09567863494157791,-0.7827093005180359,-0.4001499116420746,-0.021017756313085556,0.0033187801018357277,-0.16205115616321564,-0.14990009367465973,0.11150114238262177,-0.2349798083305359,-0.10180080682039261,-0.26743263006210327,-0.33975109457969666,-0.35156679153442383,0.38677453994750977,0.03077172487974167,-0.5007544159889221,-0.1100555807352066,-0.031059397384524345,-0.5068396925926208,0.14666162431240082,0.05523168295621872,-0.17228426039218903,0.07352136075496674,-0.29290175437927246,-0.2681756615638733,0.1086171418428421,-0.00111528136767447,0.06112431362271309,-0.3703974485397339,-0.3603728115558624,0.7733592987060547,0.23826558887958527,-0.33304864168167114,-0.20320333540439606,0.03836124390363693,0.08740496635437012,-0.09468729048967361,0.09184997528791428,0.3678128719329834,0.38440126180648804,0.14983686804771423,-0.12968823313713074,-0.16646765172481537,0.07155042886734009,-0.38969317078590393,0.035023901611566544,-0.8134171366691589,0.7568812966346741,0.34392479062080383,0.087020143866539,-0.05005551874637604,0.16581882536411285,1.1373040676116943,-0.11727932840585709,-0.2682090103626251,0.14824700355529785,-0.08028905093669891,-0.12653696537017822,0.0978303775191307,-0.7620673179626465,-0.19783838093280792,-0.2521679997444153,-1.1203515529632568,-0.04467586427927017,-0.030632197856903076,0.26658883690834045,-0.05481083691120148,0.07518555223941803,-0.11616923660039902,0.20016710460186005,0.40997597575187683,-0.04921650514006615,-0.15611429512500763,-0.08022754639387131,0.17789797484874725,0.3551064133644104,0.3646544814109802,0.17523331940174103,-0.19368542730808258,-0.8435713648796082,-0.039208121597766876,-0.18974371254444122,0.02649705298244953,-0.06415075808763504,0.33441653847694397,-0.06436433643102646,-0.33640056848526,0.10040191560983658,0.026498258113861084,-0.13499093055725098,0.09541796147823334,-0.8087319135665894,-0.1256435513496399,0.16828301548957825,-0.5310973525047302,-0.26707378029823303,0.052427180111408234,-0.04966822266578674,0.2126062512397766,-0.06762392073869705,-0.29170820116996765,-0.13987360894680023,-0.17380626499652863,-0.07826805859804153,-0.05944500118494034,-0.07948604971170425,0.15447112917900085,-0.25987207889556885,-0.8574160933494568,-0.777672529220581,-0.4516642689704895,-0.18018196523189545,0.24031344056129456,-0.03703202307224274,-0.19249556958675385,0.07408347725868225,0.641520619392395,-0.051664482802152634,-0.09379266947507858,-0.025398842990398407,-0.4338684380054474,0.08170495182275772,-0.07447431981563568,-0.28659573197364807,-0.01091535110026598,-0.2871779501438141,-0.8829004764556885,0.028968442231416702,0.11654145270586014,-0.575539231300354,0.3196503520011902,-0.11950396746397018,0.0382382869720459,-0.10238171368837357,-0.7339169383049011,0.23917654156684875,-0.007468703202903271,-0.2677460014820099,-0.0774339884519577,0.25116264820098877,0.07248745858669281,0.20285460352897644,-0.07622053474187851,-0.5159429311752319,-0.02217542566359043,-0.13310003280639648,-0.27831363677978516,-0.13704942166805267,-0.7678430080413818,-0.055400680750608444,-0.07756336033344269,-0.32485726475715637,-0.38908031582832336,-0.08831065148115158,0.11542145162820816,0.031199198216199875,-0.10277114063501358,-0.018135087564587593,-0.962152898311615,0.1018519327044487,0.04694810137152672,-0.31869420409202576,-0.010294850915670395,0.1176859587430954,-0.09005177766084671,0.08900891989469528,-0.6309399604797363,-0.5124990940093994,-0.11471351981163025,-0.16989246010780334,-0.00583939952775836,-0.06922663003206253,-0.8088833689689636,-0.10658499598503113,-1.836828351020813,-0.5837171673774719,-0.10842527449131012,0.019801223650574684,-0.291140079498291,-0.08069000393152237,-0.7431719899177551,-0.08644377440214157,-0.6400840878486633,-0.1169445663690567,-0.15951956808567047,0.030916236340999603,-0.23726768791675568,-0.9042034149169922,-0.8006812334060669,-0.05938578397035599,-1.8133964538574219,-0.3103230893611908,-0.18908075988292694,-1.3036301136016846,-0.3848274350166321,-0.09534870088100433,-0.08501598238945007,-0.3279099762439728,0.27735796570777893,-0.24035176634788513,-0.2365482598543167,0.00509855430573225,0.02210908569395542,-0.40027299523353577,-0.07338380813598633,0.31963974237442017,-0.564293384552002,-0.4839586913585663,0.09402302652597427,-0.22232364118099213,-0.10633387416601181,-0.25451332330703735,0.3426244258880615,0.08671694993972778,0.0020472302567213774,0.06213150918483734,-0.16829201579093933,0.02807779796421528,0.0656856968998909,0.4008823335170746,-0.07820191979408264,-0.046841852366924286,-0.7033094763755798,-0.033741336315870285,-0.5437885522842407,-0.21456047892570496,0.016790097579360008,-0.4018296003341675,0.2841797173023224,0.11712195724248886,0.2131793200969696,-0.6520686149597168,-0.10543479770421982,-0.17373867332935333,-0.3093539774417877,0.26846760511398315,-0.8156079053878784,-0.6866971254348755,-0.9460234045982361,-0.3269316554069519,0.06483851373195648,-0.28691282868385315,0.051553525030612946,0.1571524292230606,0.0890771746635437,-0.026139646768569946,-0.32541710138320923,0.004131882917135954,0.17947077751159668,-0.06133164092898369,0.09396558254957199,-0.23783361911773682,-0.12236732244491577,0.20435656607151031,-0.11361120641231537,0.0010964879766106606,0.08864013105630875,0.18222291767597198,0.02607632987201214,0.1857704371213913,-0.1333417147397995,-0.0076562934555113316,-0.4584309458732605,-0.557451069355011,0.02032775804400444,0.2524515986442566,-0.19170638918876648,0.12681500613689423,-0.6354751586914062,0.9909263849258423,-0.971376895904541,0.06271632760763168,0.0856904610991478,-0.011854092590510845,-0.15809884667396545,0.009161443449556828,0.17682622373104095,0.07280927896499634,0.2980593144893646,0.15529711544513702,-0.3029820919036865,-0.10079219192266464,-0.17106491327285767,-0.357368528842926,-0.06439456343650818,0.096732497215271,-1.3648203611373901,0.051302067935466766,-0.020728353410959244,-0.35183030366897583,-0.7782889008522034,-0.16362540423870087,0.006949212402105331,-0.15236635506153107,0.32958799600601196,0.11198077350854874,-0.13898906111717224,0.11579111963510513,0.07393666356801987,-0.43000149726867676,-1.144176959991455,0.09655311703681946,-0.5956546664237976,-0.490132212638855,0.0194095391780138,-0.04056544974446297,-0.1963556408882141,-0.3812697231769562,0.7281181812286377,0.27147310972213745,-0.19668354094028473,-0.06501694768667221,0.10647465288639069,0.05629836022853851,0.16846641898155212,-0.2625296711921692,0.1173664778470993,0.04212487116456032,0.10305211693048477,-0.05675654485821724,0.09603332728147507,-0.2455909550189972,0.1204582080245018,-0.004646941088140011,0.1610437035560608,-0.14673177897930145,0.13588710129261017,-0.07685286551713943,0.20580506324768066,0.24893859028816223,-0.23363716900348663,0.27178844809532166,0.0835384726524353,0.011406267993152142,0.15583914518356323,0.007954190485179424,-0.20547747611999512,0.14753620326519012,0.0900055393576622,-0.016808124259114265,0.192118838429451,0.10654670745134354,0.1523706167936325,-0.037407808005809784,0.10246068984270096,0.004267502576112747,-0.18598602712154388,0.11821895837783813,0.15528170764446259,0.12007962912321091,0.22981123626232147,-0.06418920308351517,0.15805979073047638,-0.06467937678098679,-0.01767135038971901,0.05628422647714615,-0.24774329364299774,0.09943404793739319,0.2067478597164154,0.24155566096305847,0.06827300041913986,-0.17428921163082123,-0.013226238079369068,-0.027248581871390343,-0.8049900531768799,-0.5843624472618103,-1.118030309677124,-0.3154481053352356,-0.14496108889579773,0.11300089955329895,-0.03859766945242882,0.09058073908090591,-0.10604172945022583,-0.3011576235294342,-0.2890550494194031,-0.07998660206794739,-0.32817980647087097,-0.15512976050376892,-0.2692587971687317,-0.3678126931190491,-0.2694515585899353,-0.28731781244277954,-1.691268801689148,-0.09306365996599197,-0.18757563829421997,-0.5060600638389587,-0.7079519629478455,0.0193185955286026,-0.010354408994317055,-0.22807097434997559,0.23013533651828766,-0.6064519286155701,-0.17000548541545868,-0.04056375473737717,-0.07137010246515274,0.1755395233631134,-0.07973311096429825,0.28530824184417725,0.28642717003822327,0.31523481011390686,0.014986076392233372,-0.04087216034531593,0.08200167864561081,0.12272390723228455,-0.8276204466819763,-0.13605313003063202,0.40640905499458313,-0.037174150347709656,-0.3210979700088501,0.1276644915342331,-0.29325371980667114,0.3827919661998749,-0.054669030010700226,0.5184645652770996,-0.09633603692054749,-0.04369683936238289,0.1593489944934845,-0.19958199560642242,-0.4803638756275177,0.2601928412914276,-0.2570393681526184,0.257236123085022,-0.57082599401474,-0.3060891032218933,0.11017046123743057,0.031635746359825134,-0.05154905468225479,-0.11219758540391922,0.4022969901561737,0.3659159541130066,-0.18181899189949036,-0.39190295338630676,-0.1788724809885025,-0.0701104998588562,-0.20544394850730896,0.17863966524600983,-0.2451554536819458,0.03810964897274971,-0.2568719983100891,-0.011613431386649609,0.28551149368286133,0.07692805677652359,-0.019910292699933052,-0.29922768473625183,-0.17232593894004822,0.15601405501365662,0.4666100740432739,-0.2347187101840973,-0.22813065350055695,-0.06738055497407913,-0.38562363386154175,-0.01301511749625206,-0.003972132224589586,-0.06620200723409653,-0.16149023175239563,0.5591611862182617,-0.39604488015174866,-0.1862344741821289,-0.28919610381126404,-0.1813153475522995,0.12573225796222687,0.339130163192749,-0.30930599570274353,-0.029812023043632507,-0.2305557280778885,-0.03319280594587326,-0.08658552914857864,-0.3626936376094818,-0.18752963840961456,-0.38090041279792786,-0.2828528583049774,0.2614377737045288,-0.1493735909461975,-0.11398297548294067,-0.220899760723114,0.20069701969623566,0.12888163328170776,-0.30130329728126526,-0.6070569753646851,0.1870916485786438,-0.3080796003341675,-0.34814825654029846,-0.2575269341468811,-0.37028756737709045,0.0934758111834526,-0.31393569707870483,-0.27685031294822693,-0.43369439244270325,-0.023039350286126137,-0.1437412053346634,0.00738818384706974,-0.07949721068143845,-0.8384408950805664,0.1295924335718155,0.5066149830818176,-0.15454554557800293,-0.09295566380023956,-0.16182543337345123,0.011967265047132969,0.24814963340759277,0.01218427438288927,-0.016296513378620148,-0.10745176672935486,-0.16033118963241577,-0.010911364108324051,-0.17023703455924988,-0.0888216570019722,-0.04572870582342148,-0.011874336749315262,0.41687875986099243,-0.43366914987564087,-0.14852279424667358,0.0015516668790951371,-0.200730562210083,-0.23980334401130676,-0.11121318489313126,-0.05327531322836876,-0.3115595281124115,0.09294842928647995,-0.01014361996203661,-0.24820441007614136,0.039470985531806946,0.17095348238945007,0.02640608325600624,-0.3272848427295685,-0.10573109239339828,-0.7949827909469604,-0.5189601182937622,-0.009526814334094524,0.041786905378103256,-0.0029906504787504673,0.004891166929155588,0.3925539255142212,-0.09183049947023392,-0.0910804495215416,0.07948292046785355,0.19217050075531006,0.0430026575922966,0.10972005128860474,-0.27632802724838257,-0.278937965631485,-0.2586097717285156,-1.3336303234100342,0.03346308320760727,-0.08948417752981186,-0.3662968575954437,0.04302535951137543,-0.1521206498146057,0.020670168101787567,-0.16730663180351257,-0.7247909903526306,-0.5549564957618713,-0.14529365301132202,-0.1372225433588028,0.011168126948177814,-0.2693074643611908,-1.2810914516448975,-0.3799808621406555,-1.8538743257522583,-0.9517349600791931,-0.024833571165800095,-0.2889498770236969,-0.4609009623527527,-0.07364828139543533,0.5547624230384827,0.3250221908092499,-0.06389530003070831,-0.1912420094013214,-0.22191530466079712,-0.0991889163851738,-0.1872009038925171,-0.9617906808853149,-0.3244815170764923,-0.09732139855623245,-1.5572237968444824,-0.18536773324012756,0.11269327998161316,-0.10590052604675293,0.48318642377853394,-0.2850551903247833,-0.022293012589216232,0.21296736598014832,0.0021510126534849405,-0.018866145983338356,-0.14611665904521942,0.18711212277412415,0.05440378934144974,0.4383988380432129,-0.6524044275283813,-0.3759099245071411,-0.5789168477058411,0.6170842051506042,-0.05579923093318939,0.06171918287873268,-0.23304961621761322,-0.03701123595237732,0.1769905537366867,-0.0724387839436531,0.2283077985048294,-0.09488066285848618,-0.1505657434463501,-0.02379753068089485,0.04576348140835762,-0.9406908750534058,-0.33026617765426636,0.09297313541173935,-0.4953089952468872,0.1985013782978058,-0.14675484597682953,-0.023953549563884735,-0.46435004472732544,-0.04952641576528549,-0.18239183723926544,-0.3791597783565521,-0.5455491542816162,-0.32052913308143616,-0.1798044741153717,-0.19158434867858887,0.056582339107990265,0.1014736071228981,-0.7943397760391235,-0.1103755459189415,-0.9102650284767151,-0.23762105405330658,-0.08103588223457336,-0.10505480319261551,-0.04287296533584595,-0.08111857622861862,0.48043400049209595,-0.3082149028778076,-0.2383115440607071,0.16038523614406586,0.0003958599700126797,-0.247061625123024,-0.22407962381839752,-1.013929009437561,-0.2925814390182495,-0.26484841108322144,0.3851330876350403,-0.15844504535198212,-0.14152449369430542,-0.12791210412979126,0.04064679145812988,-0.07967192679643631,-0.4424123167991638,-0.033093925565481186,-0.40032970905303955,0.31352469325065613,-0.26175451278686523,-0.18863283097743988,-0.05221329629421234,0.13204124569892883,-0.15101583302021027,-0.23264452815055847,0.1674526184797287,0.090140700340271,-0.13653314113616943,-0.3471161127090454,-0.2560725212097168,-0.24667324125766754,0.7787477374076843,0.0574248842895031,-0.42585834860801697,-0.2744726836681366,0.3457419276237488,-0.21266159415245056,-0.011611281894147396,-0.4120992422103882,-0.1718011051416397,-0.20325350761413574,0.06321623921394348,-0.25325241684913635,-0.3561123013496399,0.21938513219356537,-0.14136016368865967,-0.15779809653759003,-0.25485759973526,-0.22704428434371948,0.1895056962966919,0.062225885689258575,-0.1443837583065033,0.16437862813472748,-0.16855093836784363,-0.37276071310043335,-0.8797916769981384,-0.5686969757080078,0.02180314064025879,-0.1984075903892517,-0.17592677474021912,0.03046152926981449,-0.11680324375629425,-0.09132533520460129,0.02407831698656082,-0.38169747591018677,-0.12964051961898804,-0.24859723448753357,0.061550211161375046,0.18292665481567383,-0.006902933586388826,-0.4285498261451721,0.04132938012480736,0.06863097101449966,-0.8008435368537903,-0.22180327773094177,-0.040792375802993774,-0.13186194002628326,-0.14695216715335846,-0.06606070697307587,0.06190058961510658,-0.11019077152013779,0.7127795219421387,0.007505378220230341,0.17698051035404205,-0.28993597626686096,0.08082890510559082,0.21564064919948578,-0.20326827466487885,-0.18398666381835938,0.20984463393688202,0.06600704044103622,-0.3002068102359772,-0.18418681621551514,0.08399906754493713,-0.32672736048698425,0.45650744438171387,0.12264566868543625,-0.22097937762737274,0.1884211003780365,0.04505336657166481,-0.07915417104959488,-0.0002946950262412429,0.17467114329338074,-0.17242392897605896,-0.22004258632659912,0.10803768038749695,-0.13700568675994873,0.10457754135131836,-0.2706931233406067,0.3151565194129944,-0.21920089423656464,-0.05369696393609047,-0.03897058218717575,0.045854393392801285,-0.4284845292568207,-0.3720380663871765,-0.04382919520139694,-0.21106861531734467,-0.13223347067832947,-0.6247016191482544,-1.2701983451843262,0.03894497826695442,0.010525866411626339,-0.19950376451015472,-0.15192142128944397,-0.3358733057975769,-0.315824419260025,0.5561336874961853,-0.15634480118751526,-0.10656189918518066,0.11607076972723007,-0.1771445870399475,0.003031205851584673,0.08760152012109756,-0.013809248805046082,-0.20413963496685028,0.03413170203566551,-0.049121297895908356,0.0886065736413002,-0.25294071435928345,-0.6046388745307922,-0.11014983803033829,-0.03225807473063469,-0.24718250334262848,0.12477303296327591,-0.2823246121406555,-0.8692443370819092,0.0414518378674984,-0.2792257070541382,-0.0428573377430439,-0.02437879890203476,-0.8433170318603516,0.0443614237010479,-1.9507436752319336,-0.11746399849653244,-0.13008666038513184,-0.03167584165930748,0.01899999938905239,0.06394004821777344,-0.20196159183979034,0.001329827238805592,0.1052972823381424,-0.21536201238632202,0.13524065911769867,-0.25337713956832886,0.006856540683656931,-0.2643031179904938,-0.16111290454864502,0.05794162675738335,-2.060609817504883,-0.30638203024864197,-0.5270759463310242,-0.5895770192146301,-1.34230375289917,-0.23581311106681824,0.09478165209293365,0.047404829412698746,0.22660113871097565,-0.6545028686523438,-0.04775795713067055,-0.24393220245838165,-0.32334840297698975,0.0375177338719368,0.19386518001556396,0.7104291915893555,-0.6399446129798889,-1.292874813079834,0.23119477927684784,0.1358060985803604,-0.18767069280147552,0.2810775339603424,-0.6026906967163086,-0.21651485562324524,0.09090553224086761,-0.1477983593940735,-0.3381366431713104,-0.28774404525756836,-0.18837781250476837,-0.23377598822116852,-0.051921941339969635,0.43755730986595154,-0.2318662852048874,-0.013791754841804504,-0.03280084580183029,-0.5184356570243835,-0.08343344926834106,0.10478602349758148,-0.01521163247525692,0.16386085748672485,-0.20693513751029968,0.09155552834272385,-0.020870033651590347,0.04359054192900658,-0.01417290885001421,0.04699975997209549,0.005283472593873739,-0.15810009837150574,0.05982259288430214,-0.22908133268356323,0.23862230777740479,-0.19671733677387238,-0.07337276637554169,-0.054541222751140594,-0.18786004185676575,-0.039040084928274155,0.019980845972895622,-0.14894916117191315,-0.2009320855140686,0.09913357347249985,0.07347327470779419,-0.4468991160392761,-0.4196067750453949,0.27277877926826477,-0.08535240590572357,0.07899186760187149,-0.1421787291765213,-0.10838422179222107,-0.3455730676651001,-0.21534579992294312,-0.10237135738134384,0.09453867375850677,-0.02451099269092083,-0.07073809206485748,0.026159662753343582,0.14574529230594635,-0.3106529116630554,0.163807675242424,-0.04778920114040375,-0.21051478385925293,-0.14952883124351501,0.0962354987859726,-0.11693574488162994,0.12638446688652039,-0.060274526476860046,-0.13561181724071503,0.13934645056724548,0.2002730667591095,0.21386241912841797,-0.11609573662281036,-0.13334378600120544,-0.1356765329837799,0.018084034323692322,-0.22229483723640442,0.002913810545578599,-0.05230998620390892,-0.21959631145000458,-0.22774261236190796,0.043149031698703766,-0.14892244338989258,-0.054302096366882324,0.07713030278682709,-0.12033375352621078,0.14022330939769745,-0.9356275796890259,-0.7846034169197083,-0.17743627727031708,-0.35692957043647766,-0.08721475303173065,0.23351231217384338,0.40468931198120117,-0.23410677909851074,0.6990604400634766,-0.8031586408615112,0.2554750442504883,0.20215846598148346,-0.18334905803203583,-0.06998006254434586,-0.6838395595550537,-0.3757402300834656,0.1260462999343872,-0.10040941089391708,0.03808039426803589,0.1095198392868042,0.10189671069383621,0.00121502170804888,0.15275415778160095,-0.02974381484091282,-0.9921496510505676,-0.030177470296621323,0.03951316326856613,-0.3963107466697693,-0.25860923528671265,-0.09550118446350098,-0.027501795440912247,0.12554752826690674,-0.09918844699859619,-0.24255506694316864,-0.029159964993596077,-0.16147193312644958,0.037142541259527206,-0.055314671248197556,-0.013830232433974743,-0.29706355929374695,-0.4527268409729004,0.10801398754119873,-0.1428951919078827,0.21711431443691254,0.07021882385015488,-0.03969070687890053,0.021717339754104614,-0.05510861054062843,-0.008768036030232906,0.08687623590230942,-0.2731774151325226,0.2340632826089859,0.13955989480018616,0.1381692737340927,-0.026896659284830093,0.06322389096021652,-0.48408448696136475,-0.14803001284599304,-0.15081076323986053,-0.05770016461610794,-0.1192655861377716,-0.27623507380485535,-0.39961671829223633,0.025838550180196762,0.0014931305777281523,-0.1383032500743866,0.06901136040687561,0.24986663460731506,0.009012557566165924,0.016082430258393288,-0.07570693641901016,-1.2386797666549683,-1.0363434553146362,-0.07245132327079773,0.03747279942035675,-0.15338902175426483,-0.2622319161891937,0.07164996862411499,0.4804651141166687,0.1089443638920784,0.17404435575008392,-0.2588023543357849,-0.45052602887153625,-0.019830266013741493,-0.25472292304039,-0.2290152758359909,-0.20582428574562073,0.0003519636229611933,-0.9205065965652466,-0.10358000546693802,-0.026589659973978996,-0.5649972558021545,-0.5232086181640625,-0.05678935348987579,0.043441660702228546,-0.2044723480939865,0.12875112891197205,-0.25074607133865356,0.13863027095794678,-0.013934865593910217,-0.21889807283878326,-0.23774942755699158,-0.02965060994029045,-0.3600917458534241,-0.2230350524187088,-0.05747153237462044,0.1536015123128891,0.1508997082710266,-0.1621837317943573,-0.01101429108530283,0.5978966951370239,0.06988625973463058,0.08015025407075882,-0.19871561229228973,-0.11620638519525528,-0.15444839000701904,-0.09455082565546036,-0.08020638674497604,-0.5460747480392456,0.1715203821659088,-0.9784590601921082,-0.21421082317829132,-0.13731428980827332,0.06419865041971207,-0.5387988686561584,-0.21933335065841675,-0.07171649485826492,0.13844895362854004,-0.09313201904296875,1.0178016424179077,-0.279191255569458,0.1717958152294159,-0.29867416620254517,-0.02167956717312336,1.0914242267608643,0.1868044137954712,0.14309948682785034,0.41405588388442993,-0.26758673787117004,0.322158545255661,-0.07941874861717224,-0.48235374689102173,-0.2546936273574829,0.0247822143137455,0.047498010098934174,-0.295366495847702,0.30124709010124207,-0.15197180211544037,-0.316034734249115,0.5277650952339172,-0.07705418020486832,-0.27914348244667053,-0.4284188747406006,-0.060331810265779495,-0.44127538800239563,-0.13724730908870697,-0.6388220191001892,-0.09356730431318283,0.05668855831027031,0.019413752481341362,-0.2218543440103531,-0.3182876408100128,0.040336571633815765,-0.03497656062245369,0.25516921281814575,-0.015005945228040218,-0.00996415875852108,-0.03375246375799179,-0.20149318873882294,0.0446246936917305,0.020717835053801537,-0.026060940697789192,0.27144598960876465,-0.24383117258548737,-0.17417030036449432,-0.12902000546455383,-0.05371374264359474,0.2812580168247223,-0.16066789627075195,-0.026225736364722252,-0.13241153955459595,-0.2734133303165436,-0.3556160628795624,0.10790563374757767,-0.07647998631000519,-0.2650315761566162,-0.05239175632596016,-0.04239564388990402,0.17371858656406403,-0.021141117438673973,-0.10852811485528946,-0.06680485606193542,-0.13107378780841827,-0.8709537982940674,0.06295459717512131,-0.12759199738502502,0.06200145184993744,0.1514531970024109,1.0354806184768677,0.08813358843326569,-0.3515470027923584,-0.32148319482803345,-0.003466450609266758,-0.13002252578735352,-0.057316266000270844,0.12298033386468887,0.37319043278694153,-0.14518946409225464,0.04594707116484642,-0.11498570442199707,-0.04115043580532074,-0.11623574793338776,-0.05949847772717476,-0.10442107170820236,-0.1206878274679184,-0.05770042538642883,0.9009461402893066,0.2329079806804657,-0.13966327905654907,0.10217639058828354,-1.413356065750122,-0.06350267678499222,-0.11809101700782776,0.23884405195713043,-0.14844068884849548,-0.2616332471370697,-0.1499173790216446,-0.043054528534412384,-0.012316161766648293,0.12372293323278427,-0.20105676352977753,-0.23175543546676636,-0.4307544231414795,0.1435810774564743,-0.01896015740931034,-0.19734597206115723,-0.08482758700847626,-0.2807403802871704,0.08912533521652222,0.1028411015868187,-0.059007320553064346,0.17246338725090027,0.10211966186761856,0.09571012854576111,0.03534527122974396,-0.01286000944674015,-0.13903802633285522,0.12534838914871216,-0.6399526000022888,0.19591085612773895,0.10546479374170303,-0.11207636445760727,-0.6113923788070679,-0.1233886256814003,0.21945923566818237,-0.25712311267852783,-0.10372094064950943,-0.3082972466945648,-0.08613654971122742,-0.16804927587509155,-0.2767016589641571,0.32613998651504517,-0.15742075443267822,-0.058257754892110825,0.14599119126796722,0.03255794942378998,-0.06291304528713226,-0.08175916224718094,0.030697263777256012,-0.019108477979898453,-0.03648790344595909,0.15901251137256622,0.136543408036232,-0.007634946145117283,-0.0816270038485527,0.004714065231382847,0.054033063352108,0.2681643068790436,0.09233269095420837,-0.01943107508122921,-0.10185301303863525,0.2591947317123413,-0.053823165595531464,-0.05167410895228386,-0.029516417533159256,0.042829278856515884,-0.015523365698754787,0.08038296550512314,-0.002806756878271699,-1.1940233707427979,-0.048414114862680435,-0.1386268436908722,0.06199876219034195,-0.01723763532936573,0.18642592430114746,0.17236100137233734,0.5845906138420105,-0.7777409553527832,-0.3240618407726288,0.10487940162420273,0.23563435673713684,-0.31688764691352844,0.2824404239654541,0.24807840585708618,0.04518121853470802,0.0317036509513855,0.197993203997612,-0.29982441663742065,-0.23975379765033722,-1.0619267225265503,-0.399823933839798,-0.10985567420721054,-0.8740306496620178,-0.011359800584614277,0.085466168820858,-0.4861808717250824,-1.1168514490127563,-0.33275339007377625]},{"name":"dense_Dense2/bias","shape":[32],"data":[-0.06948167085647583,-0.2447613775730133,-0.6315296292304993,0.15503822267055511,-0.1657429337501526,-0.19569940865039825,-0.19629493355751038,0.21312285959720612,-0.027382483705878258,0.21503043174743652,0.2415153533220291,-0.4068383276462555,-0.18311506509780884,-0.13744577765464783,-0.23683910071849823,-0.1213555708527565,-0.32537493109703064,-0.24722884595394135,-0.45636221766471863,-0.1824629008769989,-0.22239217162132263,-0.22498703002929688,-0.15106220543384552,-0.1686408370733261,-0.406786173582077,-0.27872347831726074,0.25950098037719727,-0.25991374254226685,-0.10391746461391449,-0.4311247766017914,-0.06780500710010529,-0.22162455320358276]},{"name":"dense_Dense3/kernel","shape":[32,2],"data":[0.08308763056993484,0.015998106449842453,-0.351348340511322,-0.16097761690616608,0.16466659307479858,0.029090620577335358,-0.39978015422821045,0.008895518258213997,-0.0450126938521862,0.0134962797164917,0.009611641056835651,0.01707412302494049,0.0029289708472788334,-0.01039865706115961,-0.21603098511695862,-0.19454222917556763,-0.08444399386644363,-0.22081346809864044,0.04725521802902222,-0.14982254803180695,-0.03594795987010002,-0.16415786743164062,-0.15496321022510529,-0.16181544959545135,0.01244495902210474,-0.004786525387316942,0.1478537619113922,0.04114989936351776,0.12296631187200546,0.0010873781284317374,-0.0025653692428022623,-0.02855905331671238,0.020853571593761444,0.09235978126525879,-0.010106835514307022,0.005533295683562756,-0.020017074421048164,0.20401865243911743,-0.4272580146789551,0.0380561463534832,-0.07805617898702621,0.02220529317855835,0.14259442687034607,0.178200826048851,0.004278463777154684,-0.027000410482287407,-0.3734959363937378,0.15933933854103088,-0.4580061733722687,-0.22027868032455444,0.011623358353972435,-0.07057596743106842,-0.08240506798028946,-0.2001868039369583,-0.015214888378977776,0.04479673132300377,-0.009627057239413261,0.03591986000537872,0.14050905406475067,-0.33609169721603394,-0.4022936522960663,-0.0030354484915733337,-0.008415969088673592,0.0014178729616105556]},{"name":"dense_Dense3/bias","shape":[2],"data":[-0.8596015572547913,-0.8745307922363281]}]}